FANN_FLO_2.1
num_layers=3
learning_rate=0.700000
connection_rate=1.000000
network_type=0
learning_momentum=0.000000
training_algorithm=2
train_error_function=1
train_stop_function=0
cascade_output_change_fraction=0.010000
quickprop_decay=-0.000100
quickprop_mu=1.750000
rprop_increase_factor=1.200000
rprop_decrease_factor=0.500000
rprop_delta_min=0.000000
rprop_delta_max=50.000000
rprop_delta_zero=0.100000
cascade_output_stagnation_epochs=12
cascade_candidate_change_fraction=0.010000
cascade_candidate_stagnation_epochs=12
cascade_max_out_epochs=150
cascade_min_out_epochs=50
cascade_max_cand_epochs=150
cascade_min_cand_epochs=50
cascade_num_candidate_groups=2
bit_fail_limit=3.49999994039535522461e-01
cascade_candidate_limit=1.00000000000000000000e+03
cascade_weight_multiplier=4.00000005960464477539e-01
cascade_activation_functions_count=10
cascade_activation_functions=3 5 7 8 10 11 14 15 16 17 
cascade_activation_steepnesses_count=4
cascade_activation_steepnesses=2.50000000000000000000e-01 5.00000000000000000000e-01 7.50000000000000000000e-01 1.00000000000000000000e+00 
layer_sizes=91 181 7 
scale_included=0
neurons (num_inputs, activation_function, activation_steepness)=(0, 0, 0.00000000000000000000e+00) (0, 0, 0.00000000000000000000e+00) (0, 0, 0.00000000000000000000e+00) (0, 0, 0.00000000000000000000e+00) (0, 0, 0.00000000000000000000e+00) (0, 0, 0.00000000000000000000e+00) (0, 0, 0.00000000000000000000e+00) (0, 0, 0.00000000000000000000e+00) (0, 0, 0.00000000000000000000e+00) (0, 0, 0.00000000000000000000e+00) (0, 0, 0.00000000000000000000e+00) (0, 0, 0.00000000000000000000e+00) (0, 0, 0.00000000000000000000e+00) (0, 0, 0.00000000000000000000e+00) (0, 0, 0.00000000000000000000e+00) (0, 0, 0.00000000000000000000e+00) (0, 0, 0.00000000000000000000e+00) (0, 0, 0.00000000000000000000e+00) (0, 0, 0.00000000000000000000e+00) (0, 0, 0.00000000000000000000e+00) (0, 0, 0.00000000000000000000e+00) (0, 0, 0.00000000000000000000e+00) (0, 0, 0.00000000000000000000e+00) (0, 0, 0.00000000000000000000e+00) (0, 0, 0.00000000000000000000e+00) (0, 0, 0.00000000000000000000e+00) (0, 0, 0.00000000000000000000e+00) (0, 0, 0.00000000000000000000e+00) (0, 0, 0.00000000000000000000e+00) (0, 0, 0.00000000000000000000e+00) (0, 0, 0.00000000000000000000e+00) (0, 0, 0.00000000000000000000e+00) (0, 0, 0.00000000000000000000e+00) (0, 0, 0.00000000000000000000e+00) (0, 0, 0.00000000000000000000e+00) (0, 0, 0.00000000000000000000e+00) (0, 0, 0.00000000000000000000e+00) (0, 0, 0.00000000000000000000e+00) (0, 0, 0.00000000000000000000e+00) (0, 0, 0.00000000000000000000e+00) (0, 0, 0.00000000000000000000e+00) (0, 0, 0.00000000000000000000e+00) (0, 0, 0.00000000000000000000e+00) (0, 0, 0.00000000000000000000e+00) (0, 0, 0.00000000000000000000e+00) (0, 0, 0.00000000000000000000e+00) (0, 0, 0.00000000000000000000e+00) (0, 0, 0.00000000000000000000e+00) (0, 0, 0.00000000000000000000e+00) (0, 0, 0.00000000000000000000e+00) (0, 0, 0.00000000000000000000e+00) (0, 0, 0.00000000000000000000e+00) (0, 0, 0.00000000000000000000e+00) (0, 0, 0.00000000000000000000e+00) (0, 0, 0.00000000000000000000e+00) (0, 0, 0.00000000000000000000e+00) (0, 0, 0.00000000000000000000e+00) (0, 0, 0.00000000000000000000e+00) (0, 0, 0.00000000000000000000e+00) (0, 0, 0.00000000000000000000e+00) (0, 0, 0.00000000000000000000e+00) (0, 0, 0.00000000000000000000e+00) (0, 0, 0.00000000000000000000e+00) (0, 0, 0.00000000000000000000e+00) (0, 0, 0.00000000000000000000e+00) (0, 0, 0.00000000000000000000e+00) (0, 0, 0.00000000000000000000e+00) (0, 0, 0.00000000000000000000e+00) (0, 0, 0.00000000000000000000e+00) (0, 0, 0.00000000000000000000e+00) (0, 0, 0.00000000000000000000e+00) (0, 0, 0.00000000000000000000e+00) (0, 0, 0.00000000000000000000e+00) (0, 0, 0.00000000000000000000e+00) (0, 0, 0.00000000000000000000e+00) (0, 0, 0.00000000000000000000e+00) (0, 0, 0.00000000000000000000e+00) (0, 0, 0.00000000000000000000e+00) (0, 0, 0.00000000000000000000e+00) (0, 0, 0.00000000000000000000e+00) (0, 0, 0.00000000000000000000e+00) (0, 0, 0.00000000000000000000e+00) (0, 0, 0.00000000000000000000e+00) (0, 0, 0.00000000000000000000e+00) (0, 0, 0.00000000000000000000e+00) (0, 0, 0.00000000000000000000e+00) (0, 0, 0.00000000000000000000e+00) (0, 0, 0.00000000000000000000e+00) (0, 0, 0.00000000000000000000e+00) (0, 0, 0.00000000000000000000e+00) (0, 0, 0.00000000000000000000e+00) (91, 5, 5.00000000000000000000e-01) (91, 5, 5.00000000000000000000e-01) (91, 5, 5.00000000000000000000e-01) (91, 5, 5.00000000000000000000e-01) (91, 5, 5.00000000000000000000e-01) (91, 5, 5.00000000000000000000e-01) (91, 5, 5.00000000000000000000e-01) (91, 5, 5.00000000000000000000e-01) (91, 5, 5.00000000000000000000e-01) (91, 5, 5.00000000000000000000e-01) (91, 5, 5.00000000000000000000e-01) (91, 5, 5.00000000000000000000e-01) (91, 5, 5.00000000000000000000e-01) (91, 5, 5.00000000000000000000e-01) (91, 5, 5.00000000000000000000e-01) (91, 5, 5.00000000000000000000e-01) (91, 5, 5.00000000000000000000e-01) (91, 5, 5.00000000000000000000e-01) (91, 5, 5.00000000000000000000e-01) (91, 5, 5.00000000000000000000e-01) (91, 5, 5.00000000000000000000e-01) (91, 5, 5.00000000000000000000e-01) (91, 5, 5.00000000000000000000e-01) (91, 5, 5.00000000000000000000e-01) (91, 5, 5.00000000000000000000e-01) (91, 5, 5.00000000000000000000e-01) (91, 5, 5.00000000000000000000e-01) (91, 5, 5.00000000000000000000e-01) (91, 5, 5.00000000000000000000e-01) (91, 5, 5.00000000000000000000e-01) (91, 5, 5.00000000000000000000e-01) (91, 5, 5.00000000000000000000e-01) (91, 5, 5.00000000000000000000e-01) (91, 5, 5.00000000000000000000e-01) (91, 5, 5.00000000000000000000e-01) (91, 5, 5.00000000000000000000e-01) (91, 5, 5.00000000000000000000e-01) (91, 5, 5.00000000000000000000e-01) (91, 5, 5.00000000000000000000e-01) (91, 5, 5.00000000000000000000e-01) (91, 5, 5.00000000000000000000e-01) (91, 5, 5.00000000000000000000e-01) (91, 5, 5.00000000000000000000e-01) (91, 5, 5.00000000000000000000e-01) (91, 5, 5.00000000000000000000e-01) (91, 5, 5.00000000000000000000e-01) (91, 5, 5.00000000000000000000e-01) (91, 5, 5.00000000000000000000e-01) (91, 5, 5.00000000000000000000e-01) (91, 5, 5.00000000000000000000e-01) (91, 5, 5.00000000000000000000e-01) (91, 5, 5.00000000000000000000e-01) (91, 5, 5.00000000000000000000e-01) (91, 5, 5.00000000000000000000e-01) (91, 5, 5.00000000000000000000e-01) (91, 5, 5.00000000000000000000e-01) (91, 5, 5.00000000000000000000e-01) (91, 5, 5.00000000000000000000e-01) (91, 5, 5.00000000000000000000e-01) (91, 5, 5.00000000000000000000e-01) (91, 5, 5.00000000000000000000e-01) (91, 5, 5.00000000000000000000e-01) (91, 5, 5.00000000000000000000e-01) (91, 5, 5.00000000000000000000e-01) (91, 5, 5.00000000000000000000e-01) (91, 5, 5.00000000000000000000e-01) (91, 5, 5.00000000000000000000e-01) (91, 5, 5.00000000000000000000e-01) (91, 5, 5.00000000000000000000e-01) (91, 5, 5.00000000000000000000e-01) (91, 5, 5.00000000000000000000e-01) (91, 5, 5.00000000000000000000e-01) (91, 5, 5.00000000000000000000e-01) (91, 5, 5.00000000000000000000e-01) (91, 5, 5.00000000000000000000e-01) (91, 5, 5.00000000000000000000e-01) (91, 5, 5.00000000000000000000e-01) (91, 5, 5.00000000000000000000e-01) (91, 5, 5.00000000000000000000e-01) (91, 5, 5.00000000000000000000e-01) (91, 5, 5.00000000000000000000e-01) (91, 5, 5.00000000000000000000e-01) (91, 5, 5.00000000000000000000e-01) (91, 5, 5.00000000000000000000e-01) (91, 5, 5.00000000000000000000e-01) (91, 5, 5.00000000000000000000e-01) (91, 5, 5.00000000000000000000e-01) (91, 5, 5.00000000000000000000e-01) (91, 5, 5.00000000000000000000e-01) (91, 5, 5.00000000000000000000e-01) (91, 5, 5.00000000000000000000e-01) (91, 5, 5.00000000000000000000e-01) (91, 5, 5.00000000000000000000e-01) (91, 5, 5.00000000000000000000e-01) (91, 5, 5.00000000000000000000e-01) (91, 5, 5.00000000000000000000e-01) (91, 5, 5.00000000000000000000e-01) (91, 5, 5.00000000000000000000e-01) (91, 5, 5.00000000000000000000e-01) (91, 5, 5.00000000000000000000e-01) (91, 5, 5.00000000000000000000e-01) (91, 5, 5.00000000000000000000e-01) (91, 5, 5.00000000000000000000e-01) (91, 5, 5.00000000000000000000e-01) (91, 5, 5.00000000000000000000e-01) (91, 5, 5.00000000000000000000e-01) (91, 5, 5.00000000000000000000e-01) (91, 5, 5.00000000000000000000e-01) (91, 5, 5.00000000000000000000e-01) (91, 5, 5.00000000000000000000e-01) (91, 5, 5.00000000000000000000e-01) (91, 5, 5.00000000000000000000e-01) (91, 5, 5.00000000000000000000e-01) (91, 5, 5.00000000000000000000e-01) (91, 5, 5.00000000000000000000e-01) (91, 5, 5.00000000000000000000e-01) (91, 5, 5.00000000000000000000e-01) (91, 5, 5.00000000000000000000e-01) (91, 5, 5.00000000000000000000e-01) (91, 5, 5.00000000000000000000e-01) (91, 5, 5.00000000000000000000e-01) (91, 5, 5.00000000000000000000e-01) (91, 5, 5.00000000000000000000e-01) (91, 5, 5.00000000000000000000e-01) (91, 5, 5.00000000000000000000e-01) (91, 5, 5.00000000000000000000e-01) (91, 5, 5.00000000000000000000e-01) (91, 5, 5.00000000000000000000e-01) (91, 5, 5.00000000000000000000e-01) (91, 5, 5.00000000000000000000e-01) (91, 5, 5.00000000000000000000e-01) (91, 5, 5.00000000000000000000e-01) (91, 5, 5.00000000000000000000e-01) (91, 5, 5.00000000000000000000e-01) (91, 5, 5.00000000000000000000e-01) (91, 5, 5.00000000000000000000e-01) (91, 5, 5.00000000000000000000e-01) (91, 5, 5.00000000000000000000e-01) (91, 5, 5.00000000000000000000e-01) (91, 5, 5.00000000000000000000e-01) (91, 5, 5.00000000000000000000e-01) (91, 5, 5.00000000000000000000e-01) (91, 5, 5.00000000000000000000e-01) (91, 5, 5.00000000000000000000e-01) (91, 5, 5.00000000000000000000e-01) (91, 5, 5.00000000000000000000e-01) (91, 5, 5.00000000000000000000e-01) (91, 5, 5.00000000000000000000e-01) (91, 5, 5.00000000000000000000e-01) (91, 5, 5.00000000000000000000e-01) (91, 5, 5.00000000000000000000e-01) (91, 5, 5.00000000000000000000e-01) (91, 5, 5.00000000000000000000e-01) (91, 5, 5.00000000000000000000e-01) (91, 5, 5.00000000000000000000e-01) (91, 5, 5.00000000000000000000e-01) (91, 5, 5.00000000000000000000e-01) (91, 5, 5.00000000000000000000e-01) (91, 5, 5.00000000000000000000e-01) (91, 5, 5.00000000000000000000e-01) (91, 5, 5.00000000000000000000e-01) (91, 5, 5.00000000000000000000e-01) (91, 5, 5.00000000000000000000e-01) (91, 5, 5.00000000000000000000e-01) (91, 5, 5.00000000000000000000e-01) (91, 5, 5.00000000000000000000e-01) (91, 5, 5.00000000000000000000e-01) (91, 5, 5.00000000000000000000e-01) (91, 5, 5.00000000000000000000e-01) (91, 5, 5.00000000000000000000e-01) (91, 5, 5.00000000000000000000e-01) (91, 5, 5.00000000000000000000e-01) (91, 5, 5.00000000000000000000e-01) (91, 5, 5.00000000000000000000e-01) (91, 5, 5.00000000000000000000e-01) (91, 5, 5.00000000000000000000e-01) (91, 5, 5.00000000000000000000e-01) (91, 5, 5.00000000000000000000e-01) (91, 5, 5.00000000000000000000e-01) (91, 5, 5.00000000000000000000e-01) (0, 5, 0.00000000000000000000e+00) (181, 5, 5.00000000000000000000e-01) (181, 5, 5.00000000000000000000e-01) (181, 5, 5.00000000000000000000e-01) (181, 5, 5.00000000000000000000e-01) (181, 5, 5.00000000000000000000e-01) (181, 5, 5.00000000000000000000e-01) (0, 5, 0.00000000000000000000e+00) 
connections (connected_to_neuron, weight)=(0, -1.66973084211349487305e-01) (1, 2.76978462934494018555e-01) (2, -4.69152629375457763672e-03) (3, -8.87672901153564453125e-02) (4, 5.58265298604965209961e-03) (5, -1.52344599366188049316e-01) (6, -1.24176733195781707764e-01) (7, -2.73029580712318420410e-02) (8, -8.01489725708961486816e-02) (9, 4.60774362087249755859e-01) (10, 8.14923178404569625854e-03) (11, -9.58905965089797973633e-02) (12, -1.41934007406234741211e-01) (13, 3.89909707009792327881e-02) (14, 6.85507118701934814453e-01) (15, 3.81231278181076049805e-01) (16, 2.77920931577682495117e-01) (17, 3.41615229845046997070e-01) (18, 4.59500253200531005859e-01) (19, 2.21383392810821533203e-01) (20, -1.88570901751518249512e-01) (21, 6.41170322895050048828e-01) (22, -1.78446993231773376465e-01) (23, -2.02278479933738708496e-01) (24, 1.03676207363605499268e-01) (25, 6.50853440165519714355e-02) (26, -3.83910313248634338379e-02) (27, -8.00742954015731811523e-02) (28, -1.49827767163515090942e-02) (29, 4.04915772378444671631e-03) (30, -2.10030190646648406982e-02) (31, 1.98450416326522827148e-01) (32, 2.74404883384704589844e-01) (33, -9.28169637918472290039e-02) (34, -1.02691523730754852295e-01) (35, -8.04756395518779754639e-03) (36, -2.92005151510238647461e-01) (37, 8.31058714538812637329e-03) (38, 1.28778025507926940918e-01) (39, -5.13416752219200134277e-02) (40, -4.18992638587951660156e-02) (41, -3.52931857109069824219e-01) (42, -2.56441384553909301758e-01) (43, -1.70207574963569641113e-01) (44, -3.78277786076068878174e-02) (45, -1.25109180808067321777e-01) (46, -1.48744612932205200195e-01) (47, -1.33906826376914978027e-01) (48, -3.83167415857315063477e-02) (49, 5.13438403606414794922e-01) (50, -7.60017335414886474609e-02) (51, -1.14030219614505767822e-01) (52, -2.06314846873283386230e-01) (53, -5.65828979015350341797e-02) (54, 4.60438817739486694336e-01) (55, 5.06748318672180175781e-01) (56, 1.75276234745979309082e-01) (57, -6.60714134573936462402e-02) (58, 4.08469051122665405273e-01) (59, 1.42902046442031860352e-01) (60, 3.80667805671691894531e-01) (61, 3.79511356353759765625e-01) (62, 4.27910774946212768555e-01) (63, 3.02404731512069702148e-01) (64, -1.83495670557022094727e-01) (65, 3.22973728179931640625e-01) (66, -1.42757192254066467285e-01) (67, 1.74938559532165527344e-01) (68, 3.19821208715438842773e-01) (69, -6.92417100071907043457e-02) (70, 3.06022554636001586914e-01) (71, 2.53018766641616821289e-01) (72, 3.24540019035339355469e-01) (73, 2.94783949851989746094e-01) (74, 9.14176180958747863770e-02) (75, -3.96780148148536682129e-02) (76, -1.58243805170059204102e-01) (77, -1.07802495360374450684e-01) (78, -1.34932190179824829102e-01) (79, 3.73275697231292724609e-01) (80, 2.19454273581504821777e-01) (81, -2.91514117270708084106e-03) (82, 2.20079630613327026367e-01) (83, 5.76591910794377326965e-03) (84, 3.34615677595138549805e-01) (85, 2.78332591056823730469e-01) (86, 1.04959420859813690186e-01) (87, 1.19663968682289123535e-01) (88, -7.98763334751129150391e-02) (89, 1.62508130073547363281e-01) (90, -1.23517744243144989014e-01) (0, -3.87096442282199859619e-02) (1, -7.90972888469696044922e-01) (2, 4.70152776688337326050e-03) (3, 1.21271433308720588684e-02) (4, 1.74696981906890869141e+00) (5, -3.20809632539749145508e-01) (6, 4.16191726922988891602e-01) (7, 6.67597472667694091797e-01) (8, -5.97708225250244140625e-01) (9, 2.60536265373229980469e+00) (10, 5.34855723381042480469e-01) (11, 7.80323073267936706543e-02) (12, -1.01540401577949523926e-01) (13, 2.27892324328422546387e-01) (14, -9.90626144409179687500e+00) (15, 3.41195091605186462402e-02) (16, 1.50441620498895645142e-02) (17, 7.47989267110824584961e-02) (18, 1.01474210619926452637e-01) (19, -7.15122222900390625000e-01) (20, -1.06521613895893096924e-01) (21, 1.06798577308654785156e+00) (22, 7.16319262981414794922e-01) (23, -1.29734978079795837402e-01) (24, 1.00225257873535156250e+01) (25, 2.27887019515037536621e-01) (26, -2.28641009330749511719e+00) (27, -1.60157847404479980469e+00) (28, 1.78823933005332946777e-01) (29, 8.50557461380958557129e-02) (30, 1.04104623198509216309e-01) (31, -1.87023282051086425781e+00) (32, -1.28702521324157714844e-01) (33, 2.49602999538183212280e-02) (34, -4.46228790283203125000e+00) (35, 1.95707172155380249023e-01) (36, -1.10327322036027908325e-02) (37, 9.37546938657760620117e-02) (38, -2.91610192507505416870e-02) (39, 2.34549021720886230469e+00) (40, 1.08115112304687500000e+02) (41, -3.69519948959350585938e+00) (42, 1.85914710164070129395e-01) (43, 1.66857734322547912598e-01) (44, 1.39717650413513183594e+00) (45, -1.23256519436836242676e-01) (46, 2.44408007711172103882e-02) (47, 1.28294992446899414062e+00) (48, 9.99585073441267013550e-03) (49, -1.24419009685516357422e+00) (50, 1.31462275981903076172e-01) (51, 1.02411426603794097900e-01) (52, 1.64520993828773498535e-01) (53, -1.23299562931060791016e+00) (54, -6.80181074142456054688e+00) (55, 1.13350808620452880859e-01) (56, -7.84197449684143066406e-02) (57, 1.22152008116245269775e-01) (58, -5.76688274741172790527e-02) (59, 1.41401672363281250000e+00) (60, 2.90015429258346557617e-01) (61, -2.28786259889602661133e-01) (62, -1.83671265840530395508e-02) (63, -9.38244998455047607422e-01) (64, 2.71494579315185546875e+00) (65, 6.01511485874652862549e-02) (66, -9.24124345183372497559e-02) (67, -1.09992071986198425293e-01) (68, -1.57555222511291503906e-01) (69, 6.57971978187561035156e-01) (70, 6.63870722055435180664e-02) (71, 8.88806059956550598145e-02) (72, 4.69987727701663970947e-02) (73, -1.49929523468017578125e-03) (74, 5.57225823402404785156e-01) (75, -2.95790936797857284546e-03) (76, 8.58155250549316406250e+00) (77, 1.37585413455963134766e+00) (78, -1.92069204058498144150e-03) (79, 5.77213048934936523438e-01) (80, 2.85492814145982265472e-03) (81, 5.27569055557250976562e-02) (82, -7.21165090799331665039e-02) (83, -2.38610327243804931641e-01) (84, 2.30420660972595214844e+00) (85, 2.22241669893264770508e-01) (86, -1.20711222290992736816e-01) (87, -4.89771477878093719482e-02) (88, 5.21121099591255187988e-02) (89, 7.52813875675201416016e-01) (90, 1.67208820581436157227e-01) (0, 2.56033301353454589844e-01) (1, 3.45039576292037963867e-01) (2, 3.36428821086883544922e-01) (3, 4.26857560873031616211e-01) (4, 4.39085811376571655273e-01) (5, 2.53593951463699340820e-01) (6, 4.51876521110534667969e-01) (7, 3.11413288116455078125e-01) (8, 1.57108545303344726562e-01) (9, -1.33152185007929801941e-02) (10, 2.45548143982887268066e-01) (11, 3.69406729936599731445e-01) (12, 4.19992119073867797852e-01) (13, 2.44960293173789978027e-01) (14, 6.92829966545104980469e-01) (15, 5.98798096179962158203e-01) (16, 4.92412626743316650391e-01) (17, 5.21358251571655273438e-01) (18, 4.40915852785110473633e-01) (19, 3.59013408422470092773e-01) (20, 7.31298625469207763672e-02) (21, 3.96006196737289428711e-01) (22, 3.71343076229095458984e-01) (23, 1.72241017222404479980e-01) (24, 4.10302042961120605469e-01) (25, 2.62283444404602050781e-01) (26, 5.03499329090118408203e-01) (27, 3.79955410957336425781e-01) (28, 2.44200587272644042969e-01) (29, 5.89061558246612548828e-01) (30, 4.20265853404998779297e-01) (31, 5.19561350345611572266e-01) (32, 3.55877250432968139648e-01) (33, 4.69223141670227050781e-01) (34, 1.59900650382041931152e-01) (35, 2.62790769338607788086e-01) (36, 3.81769418716430664062e-01) (37, 3.28800320625305175781e-01) (38, 2.15242981910705566406e-01) (39, 3.24434310197830200195e-01) (40, 9.48293358087539672852e-02) (41, 2.86330044269561767578e-01) (42, 3.90001952648162841797e-01) (43, 8.79248157143592834473e-02) (44, 6.23997598886489868164e-02) (45, 3.74151498079299926758e-01) (46, 4.05545353889465332031e-01) (47, 3.12721908092498779297e-01) (48, 3.29846650362014770508e-01) (49, 5.30940592288970947266e-01) (50, 3.17972332239151000977e-01) (51, 4.44305658340454101562e-01) (52, 2.64492869377136230469e-01) (53, 3.33247661590576171875e-01) (54, 2.63022303581237792969e-01) (55, 3.90939056873321533203e-01) (56, 4.48282390832901000977e-01) (57, 4.51366662979125976562e-01) (58, 4.19792145490646362305e-01) (59, 3.08732509613037109375e-01) (60, 5.42925179004669189453e-01) (61, 5.27150273323059082031e-01) (62, 4.07918512821197509766e-01) (63, 3.92103314399719238281e-01) (64, 2.87016689777374267578e-01) (65, 5.30559360980987548828e-01) (66, 4.97791737318038940430e-01) (67, 4.43028599023818969727e-01) (68, 4.02205407619476318359e-01) (69, 4.85950231552124023438e-01) (70, 4.08797621726989746094e-01) (71, 4.36864972114562988281e-01) (72, 4.71376359462738037109e-01) (73, 5.25521457195281982422e-01) (74, 1.40579208731651306152e-01) (75, 2.87285715341567993164e-01) (76, 3.77189517021179199219e-01) (77, 3.23327630758285522461e-01) (78, 3.27582657337188720703e-01) (79, 3.40906202793121337891e-01) (80, 3.39861094951629638672e-01) (81, 4.14009541273117065430e-01) (82, 3.30422163009643554688e-01) (83, 3.50347936153411865234e-01) (84, 6.15916192531585693359e-01) (85, 4.37895596027374267578e-01) (86, 3.78146886825561523438e-01) (87, 4.72961366176605224609e-01) (88, 3.60269755125045776367e-01) (89, 3.41672062873840332031e-01) (90, 1.33383706212043762207e-01) (0, 1.36019423604011535645e-01) (1, -1.86688125133514404297e-01) (2, -7.64756053686141967773e-02) (3, -9.30118560791015625000e-02) (4, -1.22240716591477394104e-02) (5, 7.45722472667694091797e-01) (6, -3.79888504743576049805e-01) (7, -5.51101148128509521484e-01) (8, -1.27624601125717163086e-01) (9, 1.53525590896606445312e+01) (10, 7.88977921009063720703e-01) (11, -1.68607249855995178223e-01) (12, 7.08535593003034591675e-03) (13, 8.05611431598663330078e-01) (14, 1.61803615093231201172e+00) (15, 2.44810674339532852173e-02) (16, -6.97275111451745033264e-03) (17, 1.52247577905654907227e-01) (18, -1.30859330296516418457e-01) (19, 1.71546292304992675781e+00) (20, -7.79975280165672302246e-02) (21, 2.44980549812316894531e+00) (22, 3.25935781002044677734e-01) (23, -6.73631206154823303223e-02) (24, 5.84425687789916992188e-01) (25, 8.07289183139801025391e-01) (26, 3.31146158277988433838e-02) (27, 8.68077501654624938965e-02) (28, 8.36423933506011962891e-01) (29, -5.89638411998748779297e-01) (30, 5.23564778268337249756e-02) (31, -2.15567089617252349854e-02) (32, 6.77473396062850952148e-02) (33, 9.89372208714485168457e-02) (34, 1.83076608180999755859e+00) (35, 4.08255755901336669922e-01) (36, 2.21545767784118652344e+00) (37, 9.43139642477035522461e-02) (38, 4.33597385883331298828e-01) (39, 2.12428712844848632812e+00) (40, 8.25934410095214843750e-01) (41, 8.36294269561767578125e+00) (42, 1.90137073397636413574e-01) (43, 1.71290501952171325684e-01) (44, 3.12584221363067626953e-01) (45, -1.10045798122882843018e-01) (46, 2.16691434383392333984e-01) (47, -1.22063616290688514709e-02) (48, -2.20384538173675537109e-01) (49, -9.63215947151184082031e-01) (50, -6.59166350960731506348e-02) (51, 4.31901663541793823242e-02) (52, -1.32934808731079101562e-01) (53, -6.92619606852531433105e-02) (54, 8.31931233406066894531e-01) (55, -1.48737087845802307129e-01) (56, 5.56444078683853149414e-02) (57, -1.39175200462341308594e+00) (58, -5.63294962048530578613e-02) (59, 6.27029955387115478516e-01) (60, 1.41822683811187744141e+00) (61, 4.98662292957305908203e-01) (62, 4.26140516996383666992e-01) (63, 1.68639826774597167969e+00) (64, -5.68626582622528076172e-01) (65, 1.02420806884765625000e+00) (66, 2.35899519920349121094e+00) (67, 1.00505495071411132812e+00) (68, 2.31084513664245605469e+00) (69, -2.15628355741500854492e-01) (70, 5.46644449234008789062e-01) (71, 1.08080951031297445297e-03) (72, 1.34475970268249511719e+00) (73, 5.79285800457000732422e-01) (74, -7.48068451881408691406e-01) (75, -1.01783506572246551514e-01) (76, 3.66604000329971313477e-01) (77, 7.28826820850372314453e-02) (78, -6.96431845426559448242e-02) (79, -1.05093324184417724609e+00) (80, -6.45531654357910156250e+00) (81, 1.27994930744171142578e+00) (82, -8.90263378620147705078e-01) (83, -2.08746070861816406250e+01) (84, -3.69531624019145965576e-02) (85, 8.23462605476379394531e-01) (86, 6.39352127909660339355e-02) (87, 1.20577648282051086426e-01) (88, 4.69824284315109252930e-01) (89, 1.40939521789550781250e+00) (90, 4.55189526081085205078e-01) (0, 2.72084444761276245117e-01) (1, 1.66085347533226013184e-01) (2, 1.32928594946861267090e-01) (3, 2.56110727787017822266e-01) (4, -3.44516783952713012695e-01) (5, 2.84391880035400390625e-01) (6, 3.70187833905220031738e-02) (7, 1.51919320225715637207e-01) (8, 1.69578239321708679199e-01) (9, -3.75349462032318115234e-01) (10, -7.20060348510742187500e-01) (11, -9.69530493021011352539e-02) (12, 1.49171696975827217102e-02) (13, -7.88951992988586425781e-01) (14, -3.52617502212524414062e-01) (15, -5.24113848805427551270e-02) (16, 4.41317349672317504883e-01) (17, 4.26655799150466918945e-01) (18, -1.27863446250557899475e-02) (19, 2.24663764238357543945e-01) (20, 2.60092407464981079102e-01) (21, 5.26377081871032714844e-01) (22, 2.18145698308944702148e-01) (23, 1.22502878308296203613e-01) (24, 1.71277165412902832031e-01) (25, -3.19073140621185302734e-01) (26, 1.84785053133964538574e-01) (27, 4.05481457710266113281e-01) (28, -2.52779483795166015625e-01) (29, 1.37713953852653503418e-01) (30, -2.39335671067237854004e-01) (31, -1.25134944915771484375e-01) (32, 2.65298783779144287109e-01) (33, -1.42632409930229187012e-01) (34, -3.99757593870162963867e-01) (35, 3.43182951211929321289e-01) (36, 9.99549448490142822266e-01) (37, 2.51793503761291503906e-01) (38, 2.77084380388259887695e-01) (39, -1.86837643384933471680e-01) (40, 2.56338834762573242188e-01) (41, 1.93735516071319580078e+00) (42, 1.92279174923896789551e-01) (43, 2.74284631013870239258e-01) (44, -2.11195558309555053711e-01) (45, 2.41978824138641357422e-01) (46, 1.84555798768997192383e-01) (47, 2.78200536966323852539e-01) (48, 2.23752662539482116699e-01) (49, 6.04626715183258056641e-01) (50, 5.10113760828971862793e-02) (51, -1.21153198182582855225e-01) (52, 7.89605304598808288574e-02) (53, 3.84159833192825317383e-02) (54, -2.42284446954727172852e-01) (55, 3.59393090009689331055e-01) (56, -1.90811887383460998535e-01) (57, -6.61088451743125915527e-02) (58, -4.83041629195213317871e-02) (59, 2.33482658863067626953e-01) (60, 1.87673121690750122070e-01) (61, 5.84660232067108154297e-01) (62, 2.20766171813011169434e-01) (63, 4.81403768062591552734e-01) (64, 2.49645829200744628906e-01) (65, 5.97041368484497070312e-01) (66, 5.05159974098205566406e-01) (67, 4.42419499158859252930e-01) (68, 5.84096848964691162109e-01) (69, 4.27257746458053588867e-01) (70, 5.97318291664123535156e-01) (71, 4.38295692205429077148e-01) (72, 3.47987830638885498047e-01) (73, 6.02314054965972900391e-01) (74, 6.34552538394927978516e-02) (75, -9.18587595224380493164e-02) (76, -9.07517895102500915527e-02) (77, -7.64942690730094909668e-02) (78, -7.77522176504135131836e-02) (79, -1.70046925544738769531e-01) (80, -2.25097741931676864624e-02) (81, -1.23625129461288452148e-01) (82, -3.84552717208862304688e-01) (83, -2.15745702385902404785e-01) (84, -4.39837157726287841797e-01) (85, -8.91860872507095336914e-02) (86, -8.09185981750488281250e-01) (87, -4.01151001453399658203e-01) (88, -3.13152700662612915039e-01) (89, -2.77066081762313842773e-01) (90, 1.79823622107505798340e-01) (0, 4.09907341003417968750e-01) (1, -3.81533324718475341797e-01) (2, -2.01192378997802734375e-01) (3, 4.71409767866134643555e-01) (4, 3.05420160293579101562e-01) (5, 4.41485881805419921875e-01) (6, 5.09779274463653564453e-01) (7, 4.22172307968139648438e-01) (8, 3.68889361619949340820e-01) (9, 1.63687139749526977539e-01) (10, 3.74675422906875610352e-01) (11, 4.02344107627868652344e-01) (12, 4.07924771308898925781e-01) (13, 3.44267070293426513672e-01) (14, 2.33676582574844360352e-01) (15, 6.65344204753637313843e-03) (16, -3.52132201194763183594e-01) (17, -2.32476949691772460938e-01) (18, -1.68089181184768676758e-01) (19, 5.59479594230651855469e-01) (20, 4.47190046310424804688e-01) (21, -1.30559625104069709778e-02) (22, -5.51639869809150695801e-02) (23, 4.41582828760147094727e-01) (24, 3.51444661617279052734e-01) (25, 4.25614237785339355469e-01) (26, -5.28995469212532043457e-02) (27, -9.60405543446540832520e-02) (28, 4.29506033658981323242e-01) (29, 2.65041619539260864258e-01) (30, 3.58349472284317016602e-01) (31, -3.19242179393768310547e-01) (32, -2.66801923513412475586e-01) (33, 4.51155483722686767578e-01) (34, 4.25774812698364257812e-01) (35, 3.62842857837677001953e-01) (36, 2.87645101547241210938e-01) (37, 2.15257301926612854004e-01) (38, 4.87901300191879272461e-01) (39, 4.23260390758514404297e-01) (40, 4.77901905775070190430e-01) (41, 4.28030759096145629883e-01) (42, 2.17939689755439758301e-01) (43, 3.79891693592071533203e-01) (44, 3.18999320268630981445e-01) (45, 2.77241498231887817383e-01) (46, 1.93859666585922241211e-01) (47, 3.20684492588043212891e-01) (48, 3.17919671535491943359e-01) (49, 4.27694290876388549805e-01) (50, 3.61470818519592285156e-01) (51, 4.09077763557434082031e-01) (52, 3.34161967039108276367e-01) (53, 4.37089234590530395508e-01) (54, 2.59272009134292602539e-01) (55, -2.37193852663040161133e-01) (56, -1.62405192852020263672e-01) (57, 2.93500572443008422852e-01) (58, -2.26375326514244079590e-01) (59, 3.13640564680099487305e-01) (60, -1.94138780236244201660e-01) (61, -2.14729592204093933105e-01) (62, -7.91684240102767944336e-02) (63, -2.42447510361671447754e-01) (64, 3.49502474069595336914e-01) (65, -2.14559257030487060547e-01) (66, -1.27270193770527839661e-02) (67, -7.77113484218716621399e-03) (68, -1.83333475142717361450e-02) (69, 2.92073398828506469727e-01) (70, -3.42673003673553466797e-01) (71, -3.30030620098114013672e-01) (72, -1.05023100972175598145e-01) (73, -2.74162769317626953125e-01) (74, 4.98967975378036499023e-01) (75, -1.51884466409683227539e-01) (76, 3.68097364902496337891e-01) (77, 3.61920565366744995117e-01) (78, 3.02371889352798461914e-01) (79, 2.26670473814010620117e-01) (80, -2.80860424041748046875e-01) (81, -4.07537668943405151367e-01) (82, -2.84312456846237182617e-01) (83, -2.43543535470962524414e-01) (84, 4.55794364213943481445e-01) (85, -1.90352484583854675293e-01) (86, -2.81849741935729980469e-01) (87, -3.45771670341491699219e-01) (88, -2.77411103248596191406e-01) (89, 5.82218647003173828125e-01) (90, 4.63924974203109741211e-01) (0, 7.17746615409851074219e-02) (1, 7.34884515404701232910e-02) (2, 5.34930191934108734131e-02) (3, -1.02700546383857727051e-01) (4, -7.65595853328704833984e-01) (5, 1.81024119257926940918e-01) (6, 3.43782335519790649414e-01) (7, 2.52708047628402709961e-01) (8, 2.79468625783920288086e-01) (9, -7.74164855480194091797e-01) (10, -1.48636177182197570801e-01) (11, 6.19665801525115966797e-01) (12, 2.92951166629791259766e-01) (13, -2.11077943444252014160e-01) (14, 9.78151798248291015625e-01) (15, -4.29751239717006683350e-02) (16, 1.40181770548224449158e-02) (17, 5.47906346619129180908e-02) (18, -1.03314958512783050537e-01) (19, -5.07744967937469482422e-01) (20, -2.32953473925590515137e-01) (21, 3.23248237371444702148e-01) (22, 4.47069138288497924805e-01) (23, -2.65426129102706909180e-01) (24, -3.57562565803527832031e+00) (25, -6.79023802280426025391e-01) (26, 4.96869117021560668945e-01) (27, 4.83820647001266479492e-01) (28, -5.49119293689727783203e-01) (29, -1.73822081089019775391e+00) (30, 6.87785223126411437988e-02) (31, 3.36917698383331298828e-01) (32, -8.07033702731132507324e-02) (33, 3.55174571275711059570e-01) (34, -5.32419264316558837891e-01) (35, 3.77835780382156372070e-01) (36, 3.77400249242782592773e-01) (37, 2.36291959881782531738e-01) (38, 2.03531548380851745605e-01) (39, -1.43635720014572143555e-01) (40, -2.89606600999832153320e-01) (41, 3.02441537380218505859e-01) (42, 2.80479967594146728516e-01) (43, -1.46453768014907836914e-01) (44, -8.30337762832641601562e-01) (45, -9.15821343660354614258e-02) (46, 1.88525289297103881836e-01) (47, -7.78072401881217956543e-02) (48, -1.24912373721599578857e-01) (49, 2.84076392650604248047e-01) (50, 4.03276324272155761719e-01) (51, 3.51289510726928710938e-01) (52, 2.40365579724311828613e-01) (53, 4.15158271789550781250e-01) (54, -7.53087043762207031250e-01) (55, 6.62700384855270385742e-02) (56, -1.06772035360336303711e-01) (57, -6.28735404461622238159e-04) (58, -1.17807716131210327148e-01) (59, 3.38152468204498291016e-01) (60, -7.75741711258888244629e-02) (61, 7.47146680951118469238e-02) (62, -2.31442209333181381226e-02) (63, -3.58682982623577117920e-02) (64, -2.30441033840179443359e-01) (65, -4.46354411542415618896e-02) (66, 3.20388376712799072266e-01) (67, 4.84829246997833251953e-02) (68, -1.62638109177350997925e-02) (69, 9.28428173065185546875e-02) (70, -1.26262575387954711914e-01) (71, -7.26897642016410827637e-02) (72, -1.18044741451740264893e-01) (73, -4.85726967453956604004e-02) (74, -6.42972812056541442871e-02) (75, 6.16664849221706390381e-02) (76, 1.19667537510395050049e-02) (77, -1.00902833044528961182e-01) (78, -9.21239927411079406738e-02) (79, 3.65444719791412353516e-01) (80, 2.15037852525711059570e-01) (81, 3.15435856580734252930e-01) (82, 5.90768791735172271729e-02) (83, 6.88426196575164794922e-02) (84, -1.19986779987812042236e-01) (85, -1.14726565778255462646e-01) (86, -8.04007649421691894531e-02) (87, 3.87893170118331909180e-02) (88, 3.66043075919151306152e-02) (89, 1.59219086170196533203e-01) (90, 3.23310852050781250000e-01) (0, -3.52052986621856689453e-01) (1, -2.14822813868522644043e-01) (2, -4.02166903018951416016e-01) (3, -2.48905941843986511230e-01) (4, 7.90880799293518066406e-01) (5, -1.49041235446929931641e-01) (6, -3.67110371589660644531e-02) (7, -9.29862260818481445312e-02) (8, -9.51776802539825439453e-02) (9, 4.74677503108978271484e-01) (10, -5.33493012189865112305e-02) (11, -4.04812209308147430420e-03) (12, -9.12542268633842468262e-02) (13, 3.30693759024143218994e-02) (14, 1.17725944519042968750e+00) (15, -2.59120047092437744141e-01) (16, -1.53075516223907470703e-01) (17, -2.75064766407012939453e-01) (18, -2.24072113633155822754e-01) (19, -1.07259429991245269775e-01) (20, -6.37438774108886718750e-01) (21, -1.25670999288558959961e-01) (22, -7.58075937628746032715e-02) (23, -4.99489128589630126953e-01) (24, 3.04234802722930908203e-01) (25, -5.71386255323886871338e-02) (26, -1.06400206685066223145e-01) (27, -9.58397328853607177734e-01) (28, -2.46249869465827941895e-01) (29, 5.36699175834655761719e-01) (30, 6.31149066612124443054e-03) (31, -7.09829553961753845215e-02) (32, -1.11706459522247314453e+00) (33, 4.36408929526805877686e-02) (34, -1.25345334410667419434e-01) (35, -2.99510896205902099609e-01) (36, -1.34319201111793518066e-01) (37, -2.44566106796264648438e+00) (38, -1.87284648418426513672e-01) (39, -3.01007311791181564331e-02) (40, -1.36794471740722656250e+00) (41, -1.21532998979091644287e-01) (42, -2.41850633174180984497e-02) (43, -1.27094209194183349609e+00) (44, 2.42543980479240417480e-01) (45, -1.09189236164093017578e+00) (46, -1.97206750512123107910e-01) (47, -4.72650751471519470215e-02) (48, -1.39647811651229858398e-01) (49, 1.39965564012527465820e-01) (50, -1.79061412811279296875e-01) (51, -9.42859202623367309570e-02) (52, -3.19464169442653656006e-02) (53, -6.30454346537590026855e-02) (54, -2.93591856956481933594e-01) (55, -1.29863286018371582031e+00) (56, -1.27736642956733703613e-01) (57, -1.12349741160869598389e-01) (58, -7.19970017671585083008e-02) (59, -1.24997317790985107422e-01) (60, -2.07373905181884765625e+00) (61, -2.55520939826965332031e-01) (62, -2.87868142127990722656e-01) (63, -3.65633159875869750977e-01) (64, -1.93906605243682861328e-01) (65, -6.74479007720947265625e+00) (66, -1.48273035883903503418e-01) (67, -3.65168511867523193359e-01) (68, -2.16365122795104980469e+00) (69, 1.96971461176872253418e-01) (70, -1.31264135241508483887e-01) (71, -2.46689721941947937012e-01) (72, -3.79760384559631347656e-01) (73, -3.93603414297103881836e-01) (74, -1.64522349834442138672e-01) (75, -1.35909333825111389160e-01) (76, 2.33002260327339172363e-01) (77, 1.59837037324905395508e-01) (78, 9.56882014870643615723e-02) (79, 1.81705296039581298828e-01) (80, 1.55257552862167358398e-01) (81, 1.43544524908065795898e-01) (82, 2.01232880353927612305e-01) (83, 9.08767953515052795410e-02) (84, -1.36976405978202819824e-01) (85, -1.99888855218887329102e-01) (86, 1.12551999092102050781e+00) (87, 3.51174759864807128906e+00) (88, 1.59038439393043518066e-01) (89, -1.18364882469177246094e+00) (90, -6.60058036446571350098e-02) (0, -4.46955442428588867188e-01) (1, -3.48991441726684570312e+00) (2, -4.05829221010208129883e-01) (3, -2.98508703708648681641e-01) (4, -4.13561046123504638672e-01) (5, -2.22361072897911071777e-01) (6, -2.27008745074272155762e-01) (7, -1.85312405228614807129e-01) (8, -1.66506424546241760254e-01) (9, 2.34745964407920837402e-01) (10, -2.85003274679183959961e-01) (11, -2.55388140678405761719e-01) (12, -3.35019022226333618164e-01) (13, -6.70831024646759033203e-01) (14, 3.73868376016616821289e-01) (15, -4.70786392688751220703e-01) (16, -3.53158450126647949219e+00) (17, -1.01327645778656005859e+00) (18, -4.70851600170135498047e-01) (19, -5.20235538482666015625e-01) (20, -3.50072592496871948242e-01) (21, -1.69960662722587585449e-01) (22, -5.33862233161926269531e-01) (23, -1.20981000363826751709e-01) (24, -8.73635530471801757812e-01) (25, -8.79270017147064208984e-01) (26, -1.60977602005004882812e-01) (27, -3.58289688825607299805e-01) (28, -1.00320494174957275391e+00) (29, -2.32030138373374938965e-01) (30, -2.90975004434585571289e-01) (31, 4.73058909177780151367e-01) (32, -2.93351602554321289062e+00) (33, -2.91235536336898803711e-01) (34, -5.34039318561553955078e-01) (35, -4.96460646390914916992e-01) (36, 3.88902932405471801758e-01) (37, -2.49069601297378540039e-01) (38, -1.10223367810249328613e-01) (39, -9.98844802379608154297e-01) (40, -8.92718017101287841797e-01) (41, -1.72649160027503967285e-01) (42, -2.14539319276809692383e-01) (43, -1.15374609827995300293e-01) (44, -2.02744364738464355469e-01) (45, -3.86028647422790527344e-01) (46, -2.89056152105331420898e-01) (47, -2.78353810310363769531e-01) (48, -2.27012783288955688477e-01) (49, 1.74401834607124328613e-01) (50, -6.54792606830596923828e-01) (51, -3.57462316751480102539e-01) (52, -4.19325560331344604492e-01) (53, -3.65150034427642822266e-01) (54, 3.92836421728134155273e-01) (55, -3.46633195877075195312e+00) (56, -1.12823617458343505859e+00) (57, -7.71283149719238281250e-01) (58, -3.54994845390319824219e+00) (59, 2.24465072154998779297e-01) (60, -1.27126848697662353516e+00) (61, -1.09103548526763916016e+00) (62, -1.07824802398681640625e+00) (63, -1.15155446529388427734e+00) (64, -1.36745333671569824219e+00) (65, 1.16085329055786132812e+01) (66, 9.60175514221191406250e-01) (67, 5.19403696060180664062e-01) (68, 3.51377665996551513672e-01) (69, -1.83635026216506958008e-01) (70, -2.21114778518676757812e+00) (71, -1.29982805252075195312e+00) (72, -1.11355137825012207031e+00) (73, -3.41133809089660644531e+00) (74, -1.58170774579048156738e-01) (75, -3.73819798231124877930e-01) (76, -4.67293232679367065430e-01) (77, -8.34935903549194335938e-01) (78, -1.00672125816345214844e+00) (79, -6.62658065557479858398e-02) (80, -1.32331275939941406250e+01) (81, -2.90221309661865234375e+00) (82, -3.51604199409484863281e+00) (83, -8.79337787628173828125e+00) (84, -9.06433835625648498535e-02) (85, -3.49730277061462402344e+00) (86, -3.47661566734313964844e+00) (87, -3.10500407218933105469e+00) (88, -3.02463102340698242188e+00) (89, 1.14640347659587860107e-01) (90, -2.63415306806564331055e-01) (0, 3.16710025072097778320e-01) (1, 5.47461688518524169922e-01) (2, 5.61871170997619628906e-01) (3, 2.58624494075775146484e-01) (4, 1.44825428724288940430e-01) (5, 2.92481243610382080078e-01) (6, 4.94223803281784057617e-01) (7, 4.74160075187683105469e-01) (8, 4.52378004789352416992e-01) (9, -1.12695172429084777832e-01) (10, 4.74270850419998168945e-01) (11, 3.15468788146972656250e-01) (12, 4.29596960544586181641e-01) (13, 3.80759418010711669922e-01) (14, -5.25159180164337158203e-01) (15, 4.84298497438430786133e-01) (16, 2.30949118733406066895e-01) (17, 4.20428633689880371094e-01) (18, 5.03679454326629638672e-01) (19, 3.50923299789428710938e-01) (20, 3.60661357641220092773e-01) (21, 5.35239040851593017578e-01) (22, 4.95333641767501831055e-01) (23, 4.36090230941772460938e-01) (24, 2.94774293899536132812e-01) (25, 4.50629293918609619141e-01) (26, 4.61017280817031860352e-01) (27, 5.38666725158691406250e-01) (28, 3.38768839836120605469e-01) (29, 1.96943148970603942871e-01) (30, 5.09001314640045166016e-01) (31, 5.22988259792327880859e-01) (32, 5.64869821071624755859e-01) (33, 4.75358992815017700195e-01) (34, 5.74530482292175292969e-01) (35, 4.09240037202835083008e-01) (36, 4.61521297693252563477e-01) (37, 4.39127862453460693359e-01) (38, 5.42815029621124267578e-01) (39, 4.64314609766006469727e-01) (40, 4.86718028783798217773e-01) (41, 3.96059155464172363281e-01) (42, 5.04970550537109375000e-01) (43, 4.68119829893112182617e-01) (44, 2.43099480867385864258e-01) (45, 3.57858151197433471680e-01) (46, 3.31573545932769775391e-01) (47, 2.67055720090866088867e-01) (48, 4.00082737207412719727e-01) (49, 3.32934468984603881836e-01) (50, 5.37428617477416992188e-01) (51, 3.41759264469146728516e-01) (52, 4.60240453481674194336e-01) (53, 3.90158176422119140625e-01) (54, 4.86757010221481323242e-01) (55, 2.05900266766548156738e-01) (56, 4.34846192598342895508e-01) (57, 3.65896284580230712891e-01) (58, 4.59866881370544433594e-01) (59, 4.72690701484680175781e-01) (60, 1.42366960644721984863e-01) (61, 1.25562593340873718262e-01) (62, 4.16209101676940917969e-01) (63, 1.27721384167671203613e-01) (64, 3.78844648599624633789e-01) (65, 4.20168459415435791016e-01) (66, 4.95630294084548950195e-01) (67, 5.55960357189178466797e-01) (68, 5.51320314407348632812e-01) (69, 1.86453431844711303711e-01) (70, -2.94226650148630142212e-02) (71, 1.00585564970970153809e-01) (72, 1.42211750149726867676e-01) (73, -5.64533136785030364990e-02) (74, 4.72883701324462890625e-01) (75, 3.88240873813629150391e-01) (76, 4.43442136049270629883e-01) (77, 3.65474432706832885742e-01) (78, 3.37155133485794067383e-01) (79, -3.15783351659774780273e-01) (80, 1.69630065560340881348e-01) (81, 5.76833665370941162109e-01) (82, 4.11541193723678588867e-01) (83, 4.01774376630783081055e-01) (84, 6.22155815362930297852e-02) (85, 2.82201886177062988281e-01) (86, 2.25225821137428283691e-01) (87, 4.76627528667449951172e-01) (88, 2.99519985914230346680e-01) (89, 7.25666403770446777344e-01) (90, 4.78429138660430908203e-01) (0, 2.13469862937927246094e-01) (1, 9.56673696637153625488e-02) (2, 1.66669815778732299805e-01) (3, 2.93228536844253540039e-01) (4, 1.81035315990447998047e+00) (5, 2.84534513950347900391e-01) (6, 5.12759447097778320312e-01) (7, 6.23565495014190673828e-01) (8, 4.42025035619735717773e-01) (9, 8.75409916043281555176e-02) (10, 1.89602598547935485840e-01) (11, 2.01920896768569946289e-01) (12, 1.82723987102508544922e+00) (13, 2.04261869192123413086e-01) (14, 4.27069097757339477539e-01) (15, 2.93508172035217285156e-01) (16, -9.34028252959251403809e-03) (17, -3.40441346168518066406e-01) (18, 1.93753138184547424316e-01) (19, 5.11158466339111328125e-01) (20, 5.24910688400268554688e-01) (21, 3.91354382038116455078e-01) (22, 6.55160188674926757812e-01) (23, 5.81181824207305908203e-01) (24, 3.14807474613189697266e-01) (25, 3.70190769433975219727e-01) (26, 2.47568503022193908691e-01) (27, 3.65230894088745117188e+00) (28, 3.63989144563674926758e-01) (29, 8.26997280120849609375e-01) (30, 1.47539496421813964844e-01) (31, 5.35766363143920898438e-01) (32, 5.35456657409667968750e-01) (33, 1.42826184630393981934e-01) (34, -5.53541779518127441406e-01) (35, 3.52294266223907470703e-01) (36, 3.18268448114395141602e-01) (37, 2.32510402798652648926e-01) (38, 3.11244755983352661133e-01) (39, 5.38896955549716949463e-02) (40, 1.59584522247314453125e-01) (41, -1.19421076774597167969e+00) (42, 3.61585855484008789062e-01) (43, 6.40012770891189575195e-02) (44, 1.92458003759384155273e-01) (45, 1.53512880206108093262e-01) (46, 3.57366740703582763672e-01) (47, 2.47945755720138549805e-01) (48, 2.99923986196517944336e-01) (49, -3.91350761055946350098e-02) (50, 5.24340569972991943359e-01) (51, 2.11695849895477294922e-01) (52, 6.57554864883422851562e-01) (53, 4.99021112918853759766e-01) (54, -4.04123775660991668701e-02) (55, -3.06507647037506103516e-01) (56, 1.19005948305130004883e-01) (57, 3.54569926857948303223e-02) (58, -2.10659533739089965820e-01) (59, 6.01278245449066162109e-01) (60, -5.86078047752380371094e-01) (61, -4.77270603179931640625e+00) (62, -5.97647547721862792969e-01) (63, -6.52859544754028320312e+00) (64, 2.56291002035140991211e-01) (65, 6.92999875172972679138e-03) (66, -1.28940716385841369629e-01) (67, -8.21499973535537719727e-02) (68, -4.50975179672241210938e-01) (69, 5.02506732940673828125e-01) (70, -9.79937255382537841797e-01) (71, -1.27950578927993774414e-01) (72, -2.12760061025619506836e-01) (73, -2.82363831996917724609e-01) (74, 3.69686096906661987305e-01) (75, 1.63506660610437393188e-02) (76, -3.70179438591003417969e+00) (77, 4.62351851165294647217e-02) (78, 6.53778165578842163086e-02) (79, -7.16788619756698608398e-02) (80, 8.12832736968994140625e+00) (81, 7.37552881240844726562e-01) (82, 1.70644986629486083984e+00) (83, 1.32903175354003906250e+01) (84, 3.49451631307601928711e-01) (85, -5.75307226181030273438e+00) (86, 1.87737211585044860840e-01) (87, 2.00059846043586730957e-01) (88, 8.90891626477241516113e-02) (89, -9.52945709228515625000e-01) (90, 3.18252235651016235352e-01) (0, 3.54521811008453369141e-01) (1, 5.17562329769134521484e-01) (2, 3.92640680074691772461e-01) (3, 3.34549188613891601562e-01) (4, 4.73800867795944213867e-01) (5, 3.20754587650299072266e-01) (6, 4.91845011711120605469e-01) (7, 5.14966547489166259766e-01) (8, 3.79582405090332031250e-01) (9, 2.98362165689468383789e-01) (10, 3.70469719171524047852e-01) (11, 3.58829259872436523438e-01) (12, 4.00204718112945556641e-01) (13, 3.18041831254959106445e-01) (14, 3.19004595279693603516e-01) (15, 4.46827828884124755859e-01) (16, 3.65451991558074951172e-01) (17, 3.89884591102600097656e-01) (18, 3.14023792743682861328e-01) (19, 2.09452435374259948730e-01) (20, 3.28438907861709594727e-01) (21, 4.95454818010330200195e-01) (22, 4.22271341085433959961e-01) (23, 4.89961117506027221680e-01) (24, -5.80371618270874023438e-02) (25, 4.37231808900833129883e-01) (26, 5.48518776893615722656e-01) (27, 4.70150828361511230469e-01) (28, 2.73215442895889282227e-01) (29, 2.75857478380203247070e-01) (30, 4.05989140272140502930e-01) (31, 5.18718838691711425781e-01) (32, 4.67717915773391723633e-01) (33, 4.42736178636550903320e-01) (34, 4.42988514900207519531e-01) (35, 3.55993360280990600586e-01) (36, 3.22095513343811035156e-01) (37, 4.68222022056579589844e-01) (38, 3.46210896968841552734e-01) (39, 3.51681560277938842773e-01) (40, 3.07377338409423828125e-01) (41, 3.50189715623855590820e-01) (42, 3.92111659049987792969e-01) (43, 3.94058287143707275391e-01) (44, 2.31658458709716796875e-01) (45, 3.31631720066070556641e-01) (46, 4.04916703701019287109e-01) (47, 4.48909044265747070312e-01) (48, 3.98340672254562377930e-01) (49, 4.21793788671493530273e-01) (50, 3.59438389539718627930e-01) (51, 4.92679864168167114258e-01) (52, 3.73160511255264282227e-01) (53, 4.94494318962097167969e-01) (54, 3.37272435426712036133e-01) (55, 4.25970762968063354492e-01) (56, 4.73196685314178466797e-01) (57, 3.97258996963500976562e-01) (58, 4.57917511463165283203e-01) (59, 2.56261169910430908203e-01) (60, 3.78333896398544311523e-01) (61, 3.82995396852493286133e-01) (62, 3.75844538211822509766e-01) (63, 4.81043457984924316406e-01) (64, 2.89123088121414184570e-01) (65, 4.01085495948791503906e-01) (66, 3.89528542757034301758e-01) (67, 3.55474084615707397461e-01) (68, 3.56362104415893554688e-01) (69, -8.05594250559806823730e-02) (70, 4.75919336080551147461e-01) (71, 3.76837909221649169922e-01) (72, 4.64771926403045654297e-01) (73, 3.64634901285171508789e-01) (74, 4.19283211231231689453e-01) (75, 4.10785436630249023438e-01) (76, 4.45848941802978515625e-01) (77, 3.29774677753448486328e-01) (78, 4.72561627626419067383e-01) (79, 2.73262232542037963867e-01) (80, 3.58891636133193969727e-01) (81, 3.74350547790527343750e-01) (82, 3.84680926799774169922e-01) (83, 3.86467367410659790039e-01) (84, 4.00170981884002685547e-01) (85, 4.03796136379241943359e-01) (86, 5.81548392772674560547e-01) (87, 4.92750555276870727539e-01) (88, 5.10663926601409912109e-01) (89, 3.89522910118103027344e-01) (90, 3.79260927438735961914e-01) (0, -2.78814211487770080566e-02) (1, 7.85857588052749633789e-02) (2, 3.01945030689239501953e-01) (3, 3.49184066057205200195e-01) (4, 1.10124252736568450928e-01) (5, 6.10419437289237976074e-02) (6, -4.53975684940814971924e-02) (7, 2.02748980373144149780e-02) (8, 7.95916765928268432617e-02) (9, -1.11035577952861785889e-01) (10, 1.80272385478019714355e-01) (11, 2.27330625057220458984e-02) (12, 1.13336540758609771729e-01) (13, 2.57801383733749389648e-01) (14, 6.69459462165832519531e-01) (15, 2.04079374670982360840e-01) (16, -4.64861504733562469482e-02) (17, 2.93421417474746704102e-01) (18, 1.85735136270523071289e-01) (19, 1.48305714130401611328e-01) (20, -1.50742560625076293945e-01) (21, 1.82601183652877807617e-01) (22, 8.52861329913139343262e-02) (23, -2.94878989458084106445e-01) (24, 4.93854924570769071579e-04) (25, 2.01390773057937622070e-01) (26, -3.96643951535224914551e-02) (27, 2.06537097692489624023e-01) (28, 1.43217772245407104492e-01) (29, 2.91945129632949829102e-01) (30, 1.21048510074615478516e-01) (31, 2.51677006483078002930e-01) (32, 3.43876361846923828125e-01) (33, 2.68302559852600097656e-01) (34, 8.21290910243988037109e-02) (35, 4.31830398738384246826e-02) (36, -2.08316817879676818848e-02) (37, 2.23511517047882080078e-01) (38, 1.86048865318298339844e-01) (39, 9.83528420329093933105e-02) (40, -3.83561216294765472412e-02) (41, 2.11715355515480041504e-01) (42, 2.58707851171493530273e-01) (43, -1.69767165184020996094e+00) (44, 1.88878640532493591309e-01) (45, -9.29385870695114135742e-02) (46, -2.94360250234603881836e-01) (47, -3.13823223114013671875e-01) (48, -2.12708532810211181641e-01) (49, 2.06953212618827819824e-01) (50, -8.36893394589424133301e-02) (51, 1.84153113514184951782e-03) (52, 5.38151822984218597412e-02) (53, -5.13735935091972351074e-02) (54, 2.34029397368431091309e-01) (55, 7.35416263341903686523e-02) (56, 3.03782194852828979492e-01) (57, 3.17598760128021240234e-01) (58, 2.36174523830413818359e-01) (59, 4.46656435728073120117e-01) (60, 2.01540976762771606445e-01) (61, 2.74320751428604125977e-01) (62, 2.92466461658477783203e-01) (63, 1.38884752988815307617e-01) (64, 1.31907999515533447266e-01) (65, -5.89025653898715972900e-02) (66, -1.99480175971984863281e-01) (67, 2.09009006619453430176e-01) (68, -1.95236712694168090820e-01) (69, 3.47029983997344970703e-01) (70, -9.39109444618225097656e-01) (71, -7.00109243392944335938e-01) (72, -7.22373604774475097656e-01) (73, -2.85420715808868408203e-01) (74, 1.71127587556838989258e-01) (75, 1.78928717970848083496e-01) (76, 1.72059223055839538574e-01) (77, 3.08996438980102539062e-01) (78, 2.61364132165908813477e-01) (79, 2.11455971002578735352e-01) (80, -1.18437685072422027588e-01) (81, 3.14703136682510375977e-01) (82, 2.92046517133712768555e-01) (83, 1.11951805651187896729e-01) (84, 2.64754611998796463013e-02) (85, 1.88044041395187377930e-01) (86, 1.92433252930641174316e-01) (87, 1.91996321082115173340e-01) (88, 1.26772835850715637207e-01) (89, 1.15572728216648101807e-01) (90, 1.90014109015464782715e-01) (0, -7.11782395839691162109e-01) (1, 9.94942411780357360840e-02) (2, -1.18450121954083442688e-02) (3, -5.79546630382537841797e-01) (4, -1.69379431754350662231e-02) (5, -3.06188613176345825195e-01) (6, 1.90451174974441528320e-01) (7, 2.68770903348922729492e-01) (8, -5.43820619583129882812e-01) (9, 4.04277205467224121094e-01) (10, 1.34501412510871887207e-01) (11, 4.00079786777496337891e-01) (12, 1.80436089634895324707e-01) (13, 1.10895186662673950195e-01) (14, -2.83684879541397094727e-01) (15, -4.36807960271835327148e-01) (16, 1.53339371085166931152e-01) (17, 1.25339508056640625000e-01) (18, -5.23201942443847656250e-01) (19, 5.33044338226318359375e-01) (20, 2.69800070673227310181e-02) (21, 4.27448481321334838867e-01) (22, 3.14508348703384399414e-01) (23, 3.05321902036666870117e-01) (24, 4.06608581542968750000e-01) (25, 3.47153842449188232422e-01) (26, 4.64634746313095092773e-01) (27, -2.82970517873764038086e-01) (28, 2.28868901729583740234e-01) (29, 3.91138076782226562500e-01) (30, -1.05882143974304199219e+00) (31, 5.51403462886810302734e-01) (32, 1.28659307956695556641e-01) (33, -2.25775107741355895996e-01) (34, -5.07367610931396484375e-01) (35, 2.53363251686096191406e-01) (36, 4.70625996589660644531e-01) (37, 5.13859093189239501953e-01) (38, 3.77596229314804077148e-01) (39, 1.00865207612514495850e-01) (40, -7.80292376875877380371e-02) (41, 5.33301115036010742188e-01) (42, 5.94529628753662109375e-01) (43, -1.99679344892501831055e-01) (44, -3.06525323539972305298e-02) (45, 2.32278257608413696289e-01) (46, 3.49916905164718627930e-01) (47, 4.81151461601257324219e-01) (48, 2.21873581409454345703e-01) (49, -5.86962342262268066406e-01) (50, 2.61183738708496093750e-01) (51, 4.38074886798858642578e-01) (52, 1.74537464976310729980e-01) (53, 1.44547268748283386230e-01) (54, -8.67631733417510986328e-02) (55, 1.15730941295623779297e-01) (56, 4.18838024139404296875e-01) (57, 3.66306066513061523438e-01) (58, 1.34934470057487487793e-01) (59, 2.46879877522587776184e-03) (60, -1.80797010660171508789e-01) (61, -8.07139873504638671875e-02) (62, 6.17628432810306549072e-02) (63, -1.27065479755401611328e-01) (64, -7.79520645737648010254e-02) (65, 2.41169720888137817383e-01) (66, 2.53413170576095581055e-01) (67, 3.62013787031173706055e-01) (68, 2.94019788503646850586e-01) (69, 1.46775469183921813965e-02) (70, -1.67027622461318969727e-01) (71, 3.93696986138820648193e-02) (72, -1.91721782088279724121e-01) (73, -2.42389753460884094238e-01) (74, 2.02332928776741027832e-01) (75, 2.80230462551116943359e-01) (76, 4.40733999013900756836e-01) (77, 3.59976977109909057617e-01) (78, 3.96964102983474731445e-01) (79, 2.12108775973320007324e-01) (80, 3.31230312585830688477e-01) (81, 3.87187838554382324219e-01) (82, 4.76151019334793090820e-01) (83, 5.09164214134216308594e-01) (84, 4.11797046661376953125e-01) (85, 4.86674904823303222656e-01) (86, 6.67296707630157470703e-01) (87, 5.63611090183258056641e-01) (88, 5.65095603466033935547e-01) (89, -7.05242335796356201172e-01) (90, 1.49193376302719116211e-01) (0, 5.21455347537994384766e-01) (1, 4.75685238838195800781e-01) (2, 5.12946963310241699219e-01) (3, 5.42888224124908447266e-01) (4, 3.35610330104827880859e-01) (5, 4.36979562044143676758e-01) (6, 5.25172889232635498047e-01) (7, 5.53287804126739501953e-01) (8, 3.20311754941940307617e-01) (9, 5.79373002052307128906e-01) (10, 3.55817288160324096680e-01) (11, 6.40083253383636474609e-01) (12, 4.83243823051452636719e-01) (13, 4.11914914846420288086e-01) (14, 6.40438854694366455078e-01) (15, 6.03049039840698242188e-01) (16, 5.01539051532745361328e-01) (17, 5.51549255847930908203e-01) (18, 5.42608380317687988281e-01) (19, -2.91165765374898910522e-02) (20, -1.42945706844329833984e-01) (21, 5.98436057567596435547e-01) (22, 5.72633385658264160156e-01) (23, 4.36629772186279296875e-01) (24, -3.30613031983375549316e-02) (25, 3.50026607513427734375e-01) (26, 4.97954368591308593750e-01) (27, 5.17992258071899414062e-01) (28, 3.34073454141616821289e-01) (29, 3.38764227926731109619e-02) (30, 6.02956175804138183594e-01) (31, 5.27149200439453125000e-01) (32, 5.75691938400268554688e-01) (33, 5.12362062931060791016e-01) (34, 3.34295779466629028320e-01) (35, 4.83355760574340820312e-01) (36, 3.80758106708526611328e-01) (37, 5.50109922885894775391e-01) (38, 4.25184339284896850586e-01) (39, 2.95275837182998657227e-01) (40, 3.83784413337707519531e-01) (41, 3.53028059005737304688e-01) (42, 3.79122495651245117188e-01) (43, 4.32024210691452026367e-01) (44, -9.29318293929100036621e-02) (45, 5.00966548919677734375e-01) (46, 4.69909578561782836914e-01) (47, 4.69916522502899169922e-01) (48, 4.49762046337127685547e-01) (49, 3.37147891521453857422e-01) (50, 5.06457328796386718750e-01) (51, 5.51704287528991699219e-01) (52, 4.41666603088378906250e-01) (53, 4.99080389738082885742e-01) (54, 4.44100946187973022461e-01) (55, 4.99831616878509521484e-01) (56, 5.91828107833862304688e-01) (57, 5.70532202720642089844e-01) (58, 4.19424891471862792969e-01) (59, 4.15722757577896118164e-01) (60, 5.00075578689575195312e-01) (61, 6.06510937213897705078e-01) (62, 4.36021983623504638672e-01) (63, 4.78450119495391845703e-01) (64, -2.97572553157806396484e-01) (65, 5.02234578132629394531e-01) (66, 4.36425745487213134766e-01) (67, 5.03092825412750244141e-01) (68, 4.93692517280578613281e-01) (69, 8.29017758369445800781e-01) (70, 5.70326149463653564453e-01) (71, 4.17692840099334716797e-01) (72, 4.28254067897796630859e-01) (73, 3.99775624275207519531e-01) (74, 1.21122002601623535156e-01) (75, 5.97623705863952636719e-01) (76, 5.82180738449096679688e-01) (77, 5.06930410861968994141e-01) (78, 4.42277759313583374023e-01) (79, 3.88740599155426025391e-01) (80, 5.42129635810852050781e-01) (81, 5.30251264572143554688e-01) (82, 4.14146453142166137695e-01) (83, 5.81346869468688964844e-01) (84, 4.11610066890716552734e-01) (85, 4.88585114479064941406e-01) (86, 4.68429952859878540039e-01) (87, 4.18099731206893920898e-01) (88, 4.54213857650756835938e-01) (89, 4.77392345666885375977e-01) (90, 3.67167949676513671875e-01) (0, -7.36732855439186096191e-02) (1, -1.26251459121704101562e-01) (2, 4.25156690180301666260e-02) (3, -2.05028295516967773438e-01) (4, 2.19278141856193542480e-01) (5, 8.09361338615417480469e-02) (6, 1.64100006222724914551e-01) (7, -4.87502068281173706055e-02) (8, -5.22559918463230133057e-02) (9, 2.88653016090393066406e-01) (10, -4.53570075333118438721e-02) (11, -1.43934702873229980469e+00) (12, -7.47909396886825561523e-02) (13, -4.11367006599903106689e-02) (14, 3.81669282913208007812e-01) (15, 9.01180505752563476562e-03) (16, -2.16048918664455413818e-02) (17, 4.98705543577671051025e-02) (18, 2.10872143507003784180e-02) (19, 1.78842946887016296387e-01) (20, -2.54994295537471771240e-02) (21, -1.07190951704978942871e-01) (22, 6.58438801765441894531e-02) (23, -7.02325552701950073242e-02) (24, 1.15005627274513244629e-01) (25, -7.19057247042655944824e-02) (26, 1.18275687098503112793e-01) (27, -9.17759984731674194336e-02) (28, -3.46385538578033447266e-02) (29, 1.75061121582984924316e-01) (30, -3.59122976660728454590e-02) (31, -7.27223828434944152832e-02) (32, 1.30037395283579826355e-02) (33, 7.93126225471496582031e-02) (34, -1.40922605991363525391e-01) (35, -3.27454395592212677002e-02) (36, 2.90926750749349594116e-02) (37, -3.64307723939418792725e-02) (38, 6.90354332327842712402e-02) (39, -1.28171101212501525879e-01) (40, 5.81942833960056304932e-02) (41, -1.36268943548202514648e-01) (42, 8.99248477071523666382e-03) (43, -1.10869742929935455322e-01) (44, 2.07229733467102050781e-01) (45, -4.36982093378901481628e-03) (46, -8.36617723107337951660e-02) (47, -4.94923777878284454346e-02) (48, 1.62777658551931381226e-02) (49, 9.73354354500770568848e-02) (50, -2.38261334598064422607e-02) (51, -2.32357755303382873535e-01) (52, -4.81506474316120147705e-02) (53, 1.67440585792064666748e-02) (54, 1.93934127688407897949e-01) (55, 1.18538729846477508545e-01) (56, 9.08888131380081176758e-02) (57, -4.06042411923408508301e-02) (58, 2.06715483218431472778e-02) (59, 4.12178039550781250000e-02) (60, 3.12950611114501953125e-02) (61, 9.10176411271095275879e-02) (62, -7.30645805597305297852e-02) (63, 1.31268367171287536621e-01) (64, -1.67216360569000244141e-01) (65, 1.99483986943960189819e-02) (66, -1.42844393849372863770e-02) (67, 8.77330750226974487305e-02) (68, 2.02740982174873352051e-01) (69, 5.44343963265419006348e-02) (70, -4.44566681981086730957e-02) (71, 2.01525585725903511047e-03) (72, -1.25025189481675624847e-03) (73, 8.52991268038749694824e-02) (74, -2.69419014453887939453e-01) (75, 6.96412622928619384766e-02) (76, 7.98054710030555725098e-02) (77, 9.89319458603858947754e-02) (78, -3.38967107236385345459e-02) (79, 4.75217141211032867432e-02) (80, -1.75755135715007781982e-02) (81, -1.46312667056918144226e-02) (82, -4.62149502709507942200e-03) (83, 2.26755648851394653320e-01) (84, 1.40246197581291198730e-01) (85, 1.54606789350509643555e-01) (86, 1.09943255782127380371e-01) (87, -2.11858609691262245178e-03) (88, 4.76464116945862770081e-03) (89, 2.66958802938461303711e-01) (90, -1.93463172763586044312e-02) (0, 5.64301788806915283203e-01) (1, 4.15669739246368408203e-01) (2, 5.28951287269592285156e-01) (3, 5.54952263832092285156e-01) (4, 5.64075291156768798828e-01) (5, 6.27122104167938232422e-01) (6, 5.58858275413513183594e-01) (7, 4.76937592029571533203e-01) (8, 7.18076348304748535156e-01) (9, -1.26144215464591979980e-01) (10, 1.02015323936939239502e-01) (11, 3.77769291400909423828e-01) (12, 4.27147090435028076172e-01) (13, 2.43569295853376388550e-02) (14, -1.67922824621200561523e-02) (15, 5.72742998600006103516e-01) (16, 4.30501252412796020508e-01) (17, 3.86647671461105346680e-01) (18, 4.24444973468780517578e-01) (19, -4.71727162599563598633e-01) (20, 5.01183927059173583984e-01) (21, 3.81897091865539550781e-01) (22, 3.16251963376998901367e-01) (23, 4.95974749326705932617e-01) (24, 3.55034732818603515625e+00) (25, 2.87944227457046508789e-01) (26, 2.14906230568885803223e-01) (27, 2.12903842329978942871e-01) (28, 1.40104606747627258301e-01) (29, 3.33588123321533203125e-01) (30, 5.36276817321777343750e-01) (31, 4.38870131969451904297e-01) (32, 4.13135439157485961914e-01) (33, 4.32237327098846435547e-01) (34, -7.62117981910705566406e-01) (35, 6.23548984527587890625e-01) (36, 4.15162384510040283203e-01) (37, 3.88568073511123657227e-01) (38, 5.24453222751617431641e-01) (39, -2.18061730265617370605e-02) (40, -2.17665582895278930664e-01) (41, 6.20509348809719085693e-02) (42, 4.02524501085281372070e-01) (43, -2.25469398498535156250e+00) (44, -3.88124912977218627930e-01) (45, 4.95275586843490600586e-01) (46, 4.32319283485412597656e-01) (47, 5.50535023212432861328e-01) (48, 4.80868458747863769531e-01) (49, -1.67748916149139404297e+00) (50, 3.77819925546646118164e-01) (51, 5.42550384998321533203e-01) (52, 4.35832589864730834961e-01) (53, 5.17049074172973632812e-01) (54, -2.03451490402221679688e+00) (55, 3.90913248062133789062e-01) (56, 4.65554624795913696289e-01) (57, 4.37879472970962524414e-01) (58, 4.23794656991958618164e-01) (59, -5.06804943084716796875e-01) (60, 3.91184806823730468750e-01) (61, 2.90539711713790893555e-01) (62, 5.06187438964843750000e-01) (63, 4.37995314598083496094e-01) (64, -1.91492891311645507812e+00) (65, 5.13304054737091064453e-01) (66, 3.02658110857009887695e-01) (67, 4.22639608383178710938e-01) (68, 3.10624301433563232422e-01) (69, -1.92428362369537353516e+00) (70, 5.55382132530212402344e-01) (71, 3.01293075084686279297e-01) (72, 4.08900171518325805664e-01) (73, 3.97251993417739868164e-01) (74, 8.56687545776367187500e-01) (75, 4.29092228412628173828e-01) (76, 3.45779448747634887695e-01) (77, 5.38294792175292968750e-01) (78, 4.05643552541732788086e-01) (79, -5.53335130214691162109e-01) (80, 4.14055079221725463867e-01) (81, 4.24629360437393188477e-01) (82, 4.47028160095214843750e-01) (83, 5.45803725719451904297e-01) (84, 3.24203228950500488281e+00) (85, 4.17967081069946289062e-01) (86, 3.33970457315444946289e-01) (87, 3.83223295211791992188e-01) (88, 4.73997056484222412109e-01) (89, -1.08455091714859008789e-01) (90, 5.76741933822631835938e-01) (0, -1.42842888832092285156e-01) (1, 1.49037867784500122070e-01) (2, -4.78003323078155517578e-02) (3, -3.92542071640491485596e-02) (4, -5.51656410098075866699e-02) (5, 3.37507396936416625977e-01) (6, 5.54457068443298339844e-01) (7, 9.19521301984786987305e-02) (8, 3.20382267236709594727e-01) (9, 1.21438398957252502441e-01) (10, 2.05566018819808959961e-01) (11, 1.22487075626850128174e-01) (12, 1.09453789889812469482e-01) (13, 2.62763977050781250000e-01) (14, 1.24053470790386199951e-02) (15, -7.34071247279644012451e-03) (16, -5.97464032471179962158e-02) (17, -8.16561654210090637207e-03) (18, 8.30215960741043090820e-03) (19, 5.97831942141056060791e-02) (20, 2.75122374296188354492e-01) (21, 2.27915716171264648438e+00) (22, 9.10592079162597656250e-02) (23, 3.51404517889022827148e-01) (24, 5.01094400882720947266e-01) (25, 3.14653486013412475586e-01) (26, 4.08381611108779907227e-01) (27, 1.82015791535377502441e-01) (28, 2.87662386894226074219e-01) (29, 9.88766476511955261230e-02) (30, -1.45361451432108879089e-02) (31, 7.73655116558074951172e-01) (32, 2.52226311713457107544e-02) (33, -1.35792285203933715820e-01) (34, 2.02460929751396179199e-01) (35, 2.44385600090026855469e-01) (36, -8.97834002971649169922e-01) (37, 1.28558456897735595703e-01) (38, 2.03951090574264526367e-01) (39, 3.63698393106460571289e-01) (40, 2.78132915496826171875e-01) (41, -3.60004568099975585938e+00) (42, 1.66587159037590026855e-02) (43, 5.04250168800354003906e-01) (44, 4.15274083614349365234e-01) (45, -2.39584296941757202148e-01) (46, 2.42605522274971008301e-01) (47, -1.13813308998942375183e-02) (48, 3.07203084230422973633e-01) (49, -1.40644288063049316406e+00) (50, 2.36390247941017150879e-01) (51, 3.00984948873519897461e-01) (52, 6.86843246221542358398e-02) (53, 4.58698391914367675781e-01) (54, -6.51990652084350585938e-01) (55, -7.11398944258689880371e-02) (56, -2.08708435297012329102e-01) (57, -3.45371633768081665039e-01) (58, -2.40608118474483489990e-02) (59, -8.36588978767395019531e-01) (60, -9.68088656663894653320e-02) (61, -1.77419871091842651367e-01) (62, -2.15519040822982788086e-01) (63, -4.62369509041309356689e-02) (64, -1.42891570925712585449e-01) (65, -1.34756993502378463745e-02) (66, -2.95960325747728347778e-02) (67, -1.05560623109340667725e-01) (68, -4.77555952966213226318e-02) (69, 1.12046480178833007812e+00) (70, -2.20920041203498840332e-01) (71, -1.39577537775039672852e-01) (72, -3.42577487230300903320e-01) (73, -1.77009075880050659180e-01) (74, 7.85576701164245605469e-02) (75, -3.09745385311543941498e-03) (76, 2.34600584954023361206e-02) (77, -7.84786343574523925781e-02) (78, 1.49669662117958068848e-01) (79, -9.73375320434570312500e-01) (80, 7.19858184456825256348e-02) (81, 3.33592236042022705078e-01) (82, 4.04343903064727783203e-02) (83, 5.07885105907917022705e-02) (84, -3.87600474059581756592e-02) (85, -1.63267463445663452148e-01) (86, -2.03283309936523437500e-01) (87, -1.11319214105606079102e-01) (88, -9.78707224130630493164e-02) (89, -4.23464238643646240234e-01) (90, 3.00870716571807861328e-01) (0, -7.27810502052307128906e-01) (1, -2.17782869935035705566e-01) (2, -3.26856732368469238281e-01) (3, -8.13389003276824951172e-01) (4, -8.86179685592651367188e-01) (5, 3.03753852844238281250e-01) (6, 3.85336279869079589844e-01) (7, 1.52112364768981933594e-01) (8, 2.08857327699661254883e-01) (9, -2.05381080508232116699e-01) (10, 1.05530805885791778564e-01) (11, 3.84636998176574707031e-01) (12, 1.81884825229644775391e-01) (13, 8.50738212466239929199e-03) (14, -1.61543798446655273438e+00) (15, -1.38982319831848144531e+00) (16, -5.70736706256866455078e-01) (17, -6.55099868774414062500e-01) (18, -1.36990904808044433594e+00) (19, 2.16590054333209991455e-02) (20, 3.57938289642333984375e-01) (21, -5.69845736026763916016e-01) (22, 7.68727958202362060547e-02) (23, 2.24447965621948242188e-01) (24, 4.18280661106109619141e-01) (25, 1.38878434896469116211e-01) (26, -1.27792134881019592285e-01) (27, -7.65260532498359680176e-02) (28, 7.02865570783615112305e-02) (29, 1.25747799873352050781e-01) (30, -1.42924022674560546875e+00) (31, -3.52409213781356811523e-01) (32, -3.69412660598754882812e-01) (33, -2.05090075731277465820e-01) (34, 8.85954499244689941406e-02) (35, 3.30288261175155639648e-01) (36, -6.68186604976654052734e-01) (37, -2.75656759738922119141e-01) (38, 3.05125087499618530273e-01) (39, 3.20826321840286254883e-01) (40, 6.72923743724822998047e-01) (41, -6.30325138568878173828e-01) (42, -5.75011789798736572266e-01) (43, 1.22967123985290527344e+00) (44, 4.17734175920486450195e-01) (45, 1.76852667331695556641e+00) (46, 1.74844169616699218750e+00) (47, 8.45881044864654541016e-01) (48, 1.52015960216522216797e+00) (49, -1.67369329929351806641e+00) (50, 9.92163494229316711426e-02) (51, 1.87942773103713989258e-01) (52, 2.94696360826492309570e-01) (53, 1.73426002264022827148e-01) (54, 4.90759581327438354492e-01) (55, -2.97204196453094482422e-01) (56, -2.67675220966339111328e-01) (57, -3.71447384357452392578e-01) (58, -2.54684835672378540039e-01) (59, -4.83953744173049926758e-01) (60, -5.98216593265533447266e-01) (61, -6.14426016807556152344e-01) (62, -3.54709893465042114258e-01) (63, -5.61999797821044921875e-01) (64, 2.22497478127479553223e-01) (65, -5.11950731277465820312e-01) (66, -4.27711367607116699219e-01) (67, -3.96656632423400878906e-01) (68, -4.46186870336532592773e-01) (69, 1.68796062469482421875e+00) (70, -4.09245043992996215820e-01) (71, -3.73965919017791748047e-01) (72, -3.09114396572113037109e-01) (73, -3.24930906295776367188e-01) (74, 4.18636173009872436523e-01) (75, -4.36799645423889160156e-01) (76, -6.86985611915588378906e-01) (77, -6.33408546447753906250e-01) (78, -5.09476542472839355469e-01) (79, -1.18809826672077178955e-01) (80, -4.73948806524276733398e-01) (81, -3.61069619655609130859e-01) (82, -3.41165810823440551758e-01) (83, -4.91938501596450805664e-01) (84, -3.81382375955581665039e-01) (85, -6.76774442195892333984e-01) (86, -6.32132959365844726562e+00) (87, -6.02931118011474609375e+00) (88, -9.71598923206329345703e-01) (89, 3.61267626285552978516e-01) (90, -1.05236463248729705811e-01) (0, 3.81434738636016845703e-01) (1, -8.39735195040702819824e-02) (2, -1.81969195604324340820e-01) (3, 2.92709410190582275391e-01) (4, 3.31131100654602050781e-01) (5, 2.44666725397109985352e-01) (6, 1.30857527256011962891e-01) (7, 2.29574307799339294434e-01) (8, 2.97708481550216674805e-01) (9, -3.12200635671615600586e-01) (10, 2.18635335564613342285e-01) (11, 4.58689779043197631836e-01) (12, 4.44156050682067871094e-01) (13, 2.83156126737594604492e-01) (14, 2.00806424021720886230e-01) (15, 3.89030665159225463867e-01) (16, -6.55887424945831298828e-02) (17, -1.23275615274906158447e-01) (18, 3.95580083131790161133e-01) (19, -3.42439450323581695557e-02) (20, 4.19731914997100830078e-01) (21, 5.08534312248229980469e-01) (22, 8.97528380155563354492e-02) (23, 4.24393773078918457031e-01) (24, 5.86822628974914550781e-02) (25, 3.04331015795469284058e-02) (26, 2.54862099885940551758e-01) (27, 3.98068815469741821289e-01) (28, 2.92649179697036743164e-01) (29, -2.41035252809524536133e-01) (30, 4.69425261020660400391e-01) (31, -6.80866777896881103516e-01) (32, -2.02782064676284790039e-01) (33, 2.63527631759643554688e-01) (34, 2.02205896377563476562e-01) (35, 3.39478909969329833984e-01) (36, 2.99482438713312149048e-02) (37, 3.26858580112457275391e-01) (38, 2.86415040493011474609e-01) (39, 4.60956767201423645020e-02) (40, 2.02112331986427307129e-01) (41, -2.11740112304687500000e+00) (42, 3.02349507808685302734e-01) (43, 5.72108291089534759521e-02) (44, -2.88932353258132934570e-01) (45, -1.45073860883712768555e-01) (46, 3.93084496259689331055e-01) (47, 4.01180714368820190430e-01) (48, -5.05952052772045135498e-02) (49, 2.14527606964111328125e-01) (50, 1.96106001734733581543e-01) (51, 1.47450029850006103516e-01) (52, 9.77098122239112854004e-02) (53, 7.07896724343299865723e-02) (54, 8.02666414529085159302e-03) (55, -2.69868612289428710938e-01) (56, -3.14467221498489379883e-01) (57, -3.94782155752182006836e-01) (58, -3.48439812660217285156e-01) (59, -9.99576151371002197266e-02) (60, 1.56399160623550415039e-01) (61, -1.61160290241241455078e-01) (62, -1.33614748716354370117e-01) (63, -3.77612337470054626465e-02) (64, -2.95498728752136230469e-01) (65, -7.17019587755203247070e-02) (66, 1.88258677721023559570e-01) (67, -1.98136344552040100098e-01) (68, 2.52051502466201782227e-01) (69, 3.68569530546665191650e-02) (70, 2.63155624270439147949e-02) (71, 5.71067221462726593018e-02) (72, 1.88192591071128845215e-01) (73, 1.01205155253410339355e-01) (74, -3.77950184047222137451e-02) (75, 2.97785639762878417969e-01) (76, 1.08443625271320343018e-01) (77, 4.33664470911026000977e-01) (78, 2.41887122392654418945e-01) (79, -5.35396188497543334961e-02) (80, -8.53386297821998596191e-02) (81, -2.61920809745788574219e-01) (82, -2.39344969391822814941e-01) (83, 1.53784126043319702148e-01) (84, 3.64881187677383422852e-01) (85, 1.87225252389907836914e-01) (86, -4.96517345309257507324e-02) (87, -1.17554761469364166260e-01) (88, -1.77304610610008239746e-01) (89, 1.33700489997863769531e-01) (90, 4.14813280105590820312e-01) (0, 4.94443774223327636719e-02) (1, 7.12490901350975036621e-02) (2, -3.32723110914230346680e-02) (3, 5.48775568604469299316e-02) (4, 6.46834194660186767578e-01) (5, 2.35521480441093444824e-01) (6, 1.12515911459922790527e-01) (7, 1.05350121855735778809e-01) (8, 2.49531790614128112793e-01) (9, -5.12603223323822021484e-01) (10, -1.57019063830375671387e-01) (11, -4.87848967313766479492e-02) (12, 6.53716325759887695312e-02) (13, -1.31042331457138061523e-01) (14, 3.81743431091308593750e+00) (15, -4.04723078012466430664e-01) (16, -1.70202761888504028320e-01) (17, -2.00074955821037292480e-01) (18, -1.07040636241436004639e-01) (19, 7.51547366380691528320e-02) (20, 5.94078421592712402344e-01) (21, -1.29647746682167053223e-01) (22, -1.75436705350875854492e-01) (23, 2.02753767371177673340e-01) (24, 5.02291798591613769531e-01) (25, 3.43296021223068237305e-01) (26, -1.18717901408672332764e-01) (27, -2.07593992352485656738e-01) (28, -7.88880884647369384766e-02) (29, 6.84897601604461669922e-01) (30, 7.52865225076675415039e-02) (31, 2.95184459537267684937e-02) (32, 8.81609544157981872559e-02) (33, 1.13971963524818420410e-01) (34, -2.90854752063751220703e-01) (35, -9.62444767355918884277e-02) (36, 7.77928307652473449707e-02) (37, 1.87955111265182495117e-01) (38, -5.98165169358253479004e-02) (39, -1.22205638885498046875e+00) (40, 5.18283367156982421875e-01) (41, -8.60246643424034118652e-03) (42, 1.94905683398246765137e-01) (43, 4.61457312107086181641e-01) (44, 2.51911222934722900391e-01) (45, 9.29373875260353088379e-02) (46, 1.87636181712150573730e-01) (47, 4.34513241052627563477e-02) (48, 1.88435371965169906616e-02) (49, -1.11150896549224853516e+00) (50, -3.30550037324428558350e-02) (51, 7.03419893980026245117e-02) (52, 4.72183115780353546143e-02) (53, 1.08096905052661895752e-01) (54, 5.04169988632202148438e+00) (55, 4.61783297359943389893e-02) (56, 5.10534495115280151367e-02) (57, 2.77877420186996459961e-01) (58, 3.21865789592266082764e-02) (59, 3.68224158883094787598e-02) (60, -2.37708896398544311523e-01) (61, 1.51182532310485839844e-01) (62, 8.11127722263336181641e-01) (63, -8.65824148058891296387e-02) (64, 2.65181422233581542969e-01) (65, -3.84101085364818572998e-02) (66, -8.92664790153503417969e-02) (67, 7.15469494462013244629e-02) (68, -1.03320047259330749512e-01) (69, -2.52465277910232543945e-01) (70, -8.10975670814514160156e-01) (71, 9.69391763210296630859e-02) (72, 1.48547843098640441895e-01) (73, -1.44744619727134704590e-01) (74, 6.39286756515502929688e-01) (75, 4.75297346711158752441e-02) (76, 1.06677919626235961914e-01) (77, 3.20106625556945800781e-01) (78, 8.85237827897071838379e-02) (79, 4.75831091403961181641e-01) (80, 6.21771931648254394531e-01) (81, 2.38747298717498779297e-01) (82, 2.28973150253295898438e+00) (83, 6.46558761596679687500e-01) (84, 5.69156706333160400391e-01) (85, -1.31819099187850952148e-02) (86, 1.90240904688835144043e-01) (87, 1.65212750434875488281e-01) (88, 1.00595414638519287109e-01) (89, -4.84865576028823852539e-01) (90, -4.00845520198345184326e-02) (0, 2.51760184764862060547e-01) (1, 5.38960576057434082031e-01) (2, 3.48658949136734008789e-01) (3, 3.09218972921371459961e-01) (4, 3.75037431716918945312e-01) (5, 3.63081693649291992188e-01) (6, 4.62620764970779418945e-01) (7, 3.93463134765625000000e-01) (8, 4.94699150323867797852e-01) (9, 3.18135082721710205078e-01) (10, 3.96833717823028564453e-01) (11, 4.62713837623596191406e-01) (12, 4.39474791288375854492e-01) (13, 4.20762240886688232422e-01) (14, 2.38371893763542175293e-01) (15, 3.31605672836303710938e-01) (16, 4.33912128210067749023e-01) (17, 3.64236921072006225586e-01) (18, 4.41118329763412475586e-01) (19, 1.71729534864425659180e-01) (20, 3.57119381427764892578e-01) (21, 4.58687633275985717773e-01) (22, 4.06872481107711791992e-01) (23, 2.52790689468383789062e-01) (24, 4.27495509386062622070e-01) (25, 4.48122739791870117188e-01) (26, 5.41888415813446044922e-01) (27, 4.16477769613265991211e-01) (28, 3.77657175064086914062e-01) (29, 1.45491331815719604492e-01) (30, 2.91041105985641479492e-01) (31, 4.99643594026565551758e-01) (32, 3.46764385700225830078e-01) (33, 3.02358061075210571289e-01) (34, 2.43650287389755249023e-01) (35, 3.99991452693939208984e-01) (36, 4.96182829141616821289e-01) (37, 4.62667763233184814453e-01) (38, 3.07480990886688232422e-01) (39, 4.18538600206375122070e-01) (40, 3.83660912513732910156e-01) (41, 3.37312400341033935547e-01) (42, 3.84946763515472412109e-01) (43, 3.38161557912826538086e-01) (44, 3.26270520687103271484e-01) (45, 4.25055325031280517578e-01) (46, 3.67230236530303955078e-01) (47, 3.68043690919876098633e-01) (48, 2.90122091770172119141e-01) (49, 1.76829084753990173340e-01) (50, 4.73496943712234497070e-01) (51, 4.29807394742965698242e-01) (52, 3.90389710664749145508e-01) (53, 3.68777930736541748047e-01) (54, 2.30345219373703002930e-01) (55, 4.03923541307449340820e-01) (56, 4.17021304368972778320e-01) (57, 4.76312339305877685547e-01) (58, 4.45021927356719970703e-01) (59, 3.10070693492889404297e-01) (60, 4.70191299915313720703e-01) (61, 4.13324058055877685547e-01) (62, 4.62616860866546630859e-01) (63, 4.95980888605117797852e-01) (64, 4.00225341320037841797e-01) (65, 4.73335117101669311523e-01) (66, 4.60315972566604614258e-01) (67, 4.09351348876953125000e-01) (68, 4.03905987739562988281e-01) (69, 3.16936850547790527344e-01) (70, -1.02495498955249786377e-01) (71, 5.02862930297851562500e-01) (72, 4.73563671112060546875e-01) (73, -2.71957479417324066162e-02) (74, 2.33276322484016418457e-01) (75, 4.96953368186950683594e-01) (76, 4.01416957378387451172e-01) (77, 4.62267756462097167969e-01) (78, 3.44075560569763183594e-01) (79, 2.95546412467956542969e-01) (80, 5.56745111942291259766e-01) (81, 3.24717789888381958008e-01) (82, 3.57496678829193115234e-01) (83, 4.08698379993438720703e-01) (84, 2.15472742915153503418e-01) (85, 5.58318674564361572266e-01) (86, 4.72420692443847656250e-01) (87, 5.55213272571563720703e-01) (88, 4.97134655714035034180e-01) (89, 1.10183991491794586182e-01) (90, 3.76097708940505981445e-01) (0, 3.87681484222412109375e-01) (1, 4.17887419462203979492e-01) (2, 4.12058323621749877930e-01) (3, 3.92502754926681518555e-01) (4, 2.88411796092987060547e-01) (5, 2.80992746353149414062e-01) (6, 3.14652800559997558594e-01) (7, 4.16979521512985229492e-01) (8, 3.46383869647979736328e-01) (9, 2.54911184310913085938e-02) (10, -7.29143768548965454102e-02) (11, 4.19077664613723754883e-01) (12, 4.74973678588867187500e-01) (13, -1.58053219318389892578e-01) (14, 1.41535559669137001038e-02) (15, 4.16928470134735107422e-01) (16, 4.81483906507492065430e-01) (17, 4.19937640428543090820e-01) (18, 4.70274090766906738281e-01) (19, 2.83366531133651733398e-01) (20, 3.23898911476135253906e-01) (21, 5.09514927864074707031e-01) (22, -3.37703078985214233398e-02) (23, 3.87874126434326171875e-01) (24, 3.15710425376892089844e-01) (25, 3.00438195466995239258e-01) (26, -6.33424073457717895508e-02) (27, -1.83416441082954406738e-01) (28, 4.20730322599411010742e-01) (29, 2.88943499326705932617e-01) (30, 3.24035078287124633789e-01) (31, 2.45329558849334716797e-01) (32, 4.56870764493942260742e-01) (33, 4.28921788930892944336e-01) (34, 3.92554342746734619141e-01) (35, 4.31443482637405395508e-01) (36, 4.83524709939956665039e-01) (37, 4.84948784112930297852e-01) (38, 3.44471514225006103516e-01) (39, 3.02609741687774658203e-01) (40, 3.73191773891448974609e-01) (41, 3.68308752775192260742e-01) (42, 4.99171465635299682617e-01) (43, 3.21444392204284667969e-01) (44, 4.31655883789062500000e-01) (45, 4.24044758081436157227e-01) (46, 2.85739630460739135742e-01) (47, 3.25523912906646728516e-01) (48, 3.59682381153106689453e-01) (49, 8.92348065972328186035e-02) (50, 4.08383339643478393555e-01) (51, 4.44283008575439453125e-01) (52, 4.31038528680801391602e-01) (53, 4.98266667127609252930e-01) (54, -7.92248919606208801270e-02) (55, 3.50396871566772460938e-01) (56, 3.68800580501556396484e-01) (57, 4.19322907924652099609e-01) (58, 1.90933525562286376953e-01) (59, -9.24247875809669494629e-02) (60, 5.16412258148193359375e-01) (61, 3.18125098943710327148e-01) (62, 3.82146120071411132812e-01) (63, 4.44385409355163574219e-01) (64, 4.43093836307525634766e-01) (65, 3.74554336071014404297e-01) (66, 5.13495743274688720703e-01) (67, 3.95056337118148803711e-01) (68, 3.34104001522064208984e-01) (69, 3.76932770013809204102e-01) (70, 3.42723757028579711914e-01) (71, 3.56979519128799438477e-01) (72, 2.61837542057037353516e-01) (73, 3.11922132968902587891e-01) (74, 3.69044154882431030273e-01) (75, 3.48790317773818969727e-01) (76, 3.67804884910583496094e-01) (77, 3.81579220294952392578e-01) (78, 3.78436952829360961914e-01) (79, -2.39320732653141021729e-02) (80, 2.53767848014831542969e-01) (81, 5.16722440719604492188e-01) (82, 3.26591670513153076172e-01) (83, 4.70478564500808715820e-01) (84, 1.86424255371093750000e-02) (85, 3.30190151929855346680e-01) (86, 3.29315990209579467773e-01) (87, 1.94183945655822753906e-01) (88, 2.28841617703437805176e-01) (89, 5.43431099504232406616e-03) (90, 2.93663948774337768555e-01) (0, 4.51910257339477539062e-01) (1, 3.42191904783248901367e-01) (2, 5.18524110317230224609e-01) (3, 4.15608823299407958984e-01) (4, 4.25269812345504760742e-01) (5, -5.00409081578254699707e-02) (6, 2.74028718471527099609e-01) (7, 3.18293333053588867188e-01) (8, 2.35572278499603271484e-01) (9, 1.18375718593597412109e-01) (10, -6.43092155456542968750e-01) (11, 3.79596501588821411133e-01) (12, 2.84862428903579711914e-01) (13, -7.25477933883666992188e-02) (14, -1.11947321891784667969e+00) (15, 2.79617309570312500000e-01) (16, 3.47377270460128784180e-01) (17, 3.47934186458587646484e-01) (18, 3.68969529867172241211e-01) (19, -5.37162721157073974609e-02) (20, 3.00752937793731689453e-01) (21, 4.79717582464218139648e-01) (22, 3.84492486715316772461e-01) (23, 2.76733100414276123047e-01) (24, -3.91520082950592041016e-01) (25, -4.87156622111797332764e-02) (26, 2.56659269332885742188e-01) (27, -2.98959994316101074219e+00) (28, -4.75892890244722366333e-03) (29, -1.38085842132568359375e+00) (30, 4.07681316137313842773e-01) (31, 4.34373885393142700195e-01) (32, 3.49788963794708251953e-01) (33, 4.01557952165603637695e-01) (34, 7.22067505121231079102e-02) (35, 1.78702864795923233032e-02) (36, 4.85589116811752319336e-01) (37, 4.25000667572021484375e-01) (38, 7.25323334336280822754e-02) (39, 1.35078400373458862305e-01) (40, 2.13533878326416015625e-01) (41, 3.64748358726501464844e-01) (42, 4.68947619199752807617e-01) (43, 2.43538573384284973145e-01) (44, -7.63080120086669921875e-01) (45, 3.64053577184677124023e-01) (46, 3.01945120096206665039e-01) (47, 4.61221396923065185547e-01) (48, 2.34875991940498352051e-01) (49, 1.25589704513549804688e+00) (50, 4.16899830102920532227e-01) (51, 4.64027822017669677734e-01) (52, 3.77877980470657348633e-01) (53, 4.38992679119110107422e-01) (54, -1.06100380420684814453e+00) (55, 5.55681943893432617188e-01) (56, 4.47262763977050781250e-01) (57, 3.74773144721984863281e-01) (58, 3.16264867782592773438e-01) (59, 1.13001847267150878906e+00) (60, 5.22524893283843994141e-01) (61, 4.49046313762664794922e-01) (62, 5.80881297588348388672e-01) (63, 4.69706505537033081055e-01) (64, 1.23580604791641235352e-01) (65, 2.91092276573181152344e-01) (66, 3.77262562513351440430e-01) (67, 3.52303892374038696289e-01) (68, 4.12491381168365478516e-01) (69, 3.90235096216201782227e-01) (70, 5.58707177639007568359e-01) (71, 4.32933419942855834961e-01) (72, 4.31596100330352783203e-01) (73, 5.39874434471130371094e-01) (74, 1.04033447802066802979e-01) (75, 4.16524052619934082031e-01) (76, 3.83060932159423828125e-01) (77, 4.96057987213134765625e-01) (78, 3.66530179977416992188e-01) (79, 5.32294809818267822266e-01) (80, 4.13524597883224487305e-01) (81, 3.07384014129638671875e-01) (82, 3.38915646076202392578e-01) (83, 2.94687569141387939453e-01) (84, 5.20307600498199462891e-01) (85, 4.79706645011901855469e-01) (86, 2.35680365562438964844e+00) (87, 2.57297229766845703125e+00) (88, 5.82412719726562500000e-01) (89, -6.83306515216827392578e-01) (90, 3.38614955544471740723e-02) (0, 6.87480121850967407227e-02) (1, 3.23569998145103454590e-02) (2, 2.52141151577234268188e-02) (3, 4.29943315684795379639e-02) (4, 4.55847978591918945312e-02) (5, 4.72963117063045501709e-02) (6, 3.58285964466631412506e-03) (7, -1.95778924971818923950e-02) (8, 6.38223290443420410156e-02) (9, 2.31636404991149902344e-01) (10, 9.20686423778533935547e-02) (11, 5.92810958623886108398e-02) (12, 6.33076950907707214355e-02) (13, 2.13392283767461776733e-02) (14, 1.25050902366638183594e-01) (15, 3.88196259737014770508e-02) (16, 1.50985002517700195312e-01) (17, 6.40415102243423461914e-02) (18, 1.18870981037616729736e-01) (19, 1.63147047162055969238e-01) (20, -3.77705357968807220459e-02) (21, 1.02253705263137817383e-02) (22, 1.58748835325241088867e-01) (23, -3.37113142013549804688e-02) (24, 2.63805780559778213501e-02) (25, -4.39388230443000793457e-02) (26, 1.47098734974861145020e-01) (27, 9.75218787789344787598e-02) (28, 8.20377171039581298828e-02) (29, 1.33072465658187866211e-01) (30, 1.29033789038658142090e-01) (31, 1.15407928824424743652e-02) (32, -8.94154086709022521973e-02) (33, 3.13610211014747619629e-02) (34, -4.77336207404732704163e-03) (35, -6.16974122822284698486e-02) (36, 1.64908021688461303711e-01) (37, 1.12633770331740379333e-02) (38, -4.35561425983905792236e-02) (39, 3.39848026633262634277e-02) (40, -9.64016746729612350464e-03) (41, 1.60274326801300048828e-01) (42, -3.35476361215114593506e-02) (43, -1.40548214316368103027e-01) (44, 2.00969189405441284180e-01) (45, 1.35117068886756896973e-01) (46, 2.92916130274534225464e-02) (47, 2.98239104449748992920e-02) (48, -5.77747232455294579268e-05) (49, -1.91192440688610076904e-02) (50, 1.35442808270454406738e-01) (51, 1.07715494930744171143e-01) (52, 1.41436412930488586426e-01) (53, 8.86006206274032592773e-02) (54, -3.12022268772125244141e-01) (55, -5.23359812796115875244e-02) (56, -4.57332050427794456482e-03) (57, 5.76251000165939331055e-02) (58, 8.24768245220184326172e-02) (59, 2.31687113642692565918e-01) (60, 8.22864919900894165039e-02) (61, 7.84188956022262573242e-02) (62, 4.79185767471790313721e-02) (63, 1.24437980353832244873e-01) (64, 3.41033995151519775391e-01) (65, 4.71999272704124450684e-02) (66, 1.12225651741027832031e-01) (67, 9.24724340438842773438e-02) (68, 1.19847998023033142090e-01) (69, 4.15527760982513427734e-01) (70, 1.35790690779685974121e-01) (71, 2.55216360092163085938e-01) (72, 7.44617655873298645020e-02) (73, 1.35912582278251647949e-01) (74, 3.41926544904708862305e-01) (75, -1.30468085408210754395e-02) (76, 2.09016557782888412476e-02) (77, -1.28865009173750877380e-02) (78, 1.28458276391029357910e-01) (79, 4.10774052143096923828e-02) (80, 4.13866946473717689514e-03) (81, 7.43189156055450439453e-02) (82, 2.65522301197052001953e-02) (83, 1.28180697560310363770e-01) (84, -1.54371574521064758301e-01) (85, 1.74469694495201110840e-01) (86, 2.22986750304698944092e-02) (87, 4.36893701553344726562e-02) (88, 1.50452569127082824707e-01) (89, -5.07077872753143310547e-02) (90, 1.13216293975710868835e-02) (0, 4.72950220108032226562e-01) (1, 4.82996881008148193359e-01) (2, 5.44410228729248046875e-01) (3, 4.48245137929916381836e-01) (4, -1.28824806213378906250e+00) (5, 3.62684726715087890625e-01) (6, 5.83244085311889648438e-01) (7, 4.21162992715835571289e-01) (8, 3.26750487089157104492e-01) (9, -2.30672672390937805176e-01) (10, 1.11205086112022399902e-01) (11, 4.41731691360473632812e-01) (12, 5.50352454185485839844e-01) (13, 1.64864718914031982422e-01) (14, -3.02227735519409179688e-01) (15, -8.69573950767517089844e-02) (16, 4.67282712459564208984e-01) (17, 4.63006943464279174805e-01) (18, -1.20799712836742401123e-01) (19, -1.03407353162765502930e-01) (20, -2.43173856288194656372e-02) (21, -8.91487407684326171875e+00) (22, 5.36535680294036865234e-01) (23, 3.95369261503219604492e-01) (24, -3.40406417846679687500e-01) (25, -1.31924867630004882812e-01) (26, 5.17893016338348388672e-01) (27, 5.35081744194030761719e-01) (28, -6.36818408966064453125e-02) (29, -2.82725751399993896484e-01) (30, 5.89156818389892578125e+00) (31, 4.57007974386215209961e-01) (32, 6.80529475212097167969e-01) (33, 5.12175083160400390625e+00) (34, 4.20709140598773956299e-02) (35, 2.62157887220382690430e-01) (36, 3.32376480102539062500e-01) (37, -1.38662323355674743652e-01) (38, 2.83431172370910644531e-01) (39, -1.31174132227897644043e-01) (40, 1.73727560043334960938e+00) (41, 4.79550689458847045898e-01) (42, 4.93990123271942138672e-01) (43, 1.77343976497650146484e+00) (44, -1.45289003849029541016e-01) (45, 7.29235410690307617188e-01) (46, 5.31712412834167480469e-01) (47, 6.21121227741241455078e-01) (48, 6.47360086441040039062e-01) (49, -2.53313958644866943359e-01) (50, 7.85395264625549316406e-01) (51, 4.54531043767929077148e-01) (52, 5.60419499874114990234e-01) (53, 5.28260052204132080078e-01) (54, 2.34388515353202819824e-01) (55, 5.00650465488433837891e-01) (56, 4.80543524026870727539e-01) (57, 5.30537724494934082031e-01) (58, 4.75568503141403198242e-01) (59, 1.63632050156593322754e-01) (60, 2.68934577703475952148e-01) (61, 4.73459750413894653320e-01) (62, 3.44229936599731445312e-01) (63, 2.83974736928939819336e-01) (64, -5.14786578714847564697e-02) (65, 5.32720446586608886719e-01) (66, 4.73848909139633178711e-01) (67, 5.33649742603302001953e-01) (68, 4.06312972307205200195e-01) (69, -3.16361069679260253906e-01) (70, 3.01067560911178588867e-01) (71, 2.71558582782745361328e-01) (72, 2.95325696468353271484e-01) (73, 3.99446278810501098633e-01) (74, 1.36593103408813476562e-01) (75, 3.79616677761077880859e-01) (76, 4.39122587442398071289e-01) (77, 4.86618220806121826172e-01) (78, 3.72434884309768676758e-01) (79, -4.41613137722015380859e-01) (80, 3.71334761381149291992e-01) (81, 4.33618098497390747070e-01) (82, 3.46355527639389038086e-01) (83, 4.88200277090072631836e-01) (84, -3.42642247676849365234e-01) (85, 3.92832785844802856445e-01) (86, 4.67879891395568847656e-01) (87, 4.82521504163742065430e-01) (88, 4.51907813549041748047e-01) (89, 2.13583350181579589844e-01) (90, 3.34371030330657958984e-01) (0, -6.25046670436859130859e-01) (1, 6.20632320642471313477e-02) (2, 1.40270769596099853516e-01) (3, -2.36858189105987548828e-01) (4, -2.77063280344009399414e-01) (5, 3.26387941837310791016e-01) (6, 3.75520735979080200195e-01) (7, 2.76014804840087890625e-01) (8, 3.01265567541122436523e-01) (9, 1.95206964015960693359e+00) (10, -1.98958680033683776855e-01) (11, 2.82341480255126953125e-01) (12, 4.72372800111770629883e-01) (13, -7.44092017412185668945e-02) (14, 2.69141674041748046875e+00) (15, -2.99627274274826049805e-01) (16, 4.55360077321529388428e-02) (17, 4.90757897496223449707e-02) (18, -3.49222660064697265625e-01) (19, -8.94078075885772705078e-01) (20, 2.71159559488296508789e-01) (21, 8.08885991573333740234e-02) (22, 2.64850948005914688110e-02) (23, 2.57334619760513305664e-01) (24, 7.00841844081878662109e-01) (25, 1.96360141038894653320e-01) (26, -4.75897699594497680664e-01) (27, -1.02540302276611328125e+00) (28, -4.60068374872207641602e-01) (29, 3.62565588951110839844e+00) (30, -6.17195777595043182373e-02) (31, 1.30406320095062255859e-01) (32, -7.35366567969322204590e-02) (33, -1.25855952501296997070e-01) (34, -3.74997645616531372070e-01) (35, -1.16733744740486145020e-01) (36, 2.41379618644714355469e+00) (37, 1.17469780147075653076e-01) (38, -7.87107795476913452148e-02) (39, -1.51426351070404052734e+00) (40, 3.14648568630218505859e-01) (41, 2.30935783386230468750e+01) (42, 3.39361578226089477539e-02) (43, 3.87843430042266845703e-01) (44, 2.53387904167175292969e+00) (45, 3.65054678916931152344e+00) (46, 9.06506240367889404297e-01) (47, 5.42169690132141113281e-01) (48, 7.94747054576873779297e-01) (49, -2.00630202889442443848e-01) (50, 5.82548230886459350586e-03) (51, -2.95529007911682128906e+00) (52, 4.95472073554992675781e-01) (53, 8.29427391290664672852e-02) (54, 1.29620485305786132812e+01) (55, 7.94307962059974670410e-02) (56, 1.66632920503616333008e-01) (57, 1.79454520344734191895e-01) (58, 1.20410159230232238770e-01) (59, 1.36925137042999267578e+00) (60, 1.07061229646205902100e-01) (61, 2.44836062192916870117e-01) (62, 1.22801922261714935303e-01) (63, -3.09488028287887573242e-02) (64, -1.04799771308898925781e+00) (65, -4.18376874923706054688e+00) (66, -1.42705172300338745117e-01) (67, 8.46944749355316162109e-02) (68, -8.31745028495788574219e-01) (69, 2.69390439987182617188e+00) (70, 1.74232631921768188477e-01) (71, 1.13664649426937103271e-01) (72, 2.44265928864479064941e-01) (73, 1.49281516671180725098e-01) (74, 2.85372853279113769531e-01) (75, 9.01830196380615234375e-02) (76, -1.19127869606018066406e-01) (77, 2.70951062440872192383e-01) (78, 1.99569001793861389160e-01) (79, -8.00196528434753417969e-02) (80, -1.51264797896146774292e-02) (81, 5.93744039535522460938e-01) (82, 1.08850514888763427734e+00) (83, 1.32477864623069763184e-01) (84, 8.61703991889953613281e-01) (85, 3.47488909959793090820e-01) (86, 1.34547561407089233398e-01) (87, 2.55217146873474121094e+00) (88, 4.55660492181777954102e-01) (89, 6.71601593494415283203e-01) (90, -1.40462920069694519043e-01) (0, 2.34432801604270935059e-01) (1, 1.74933820962905883789e-01) (2, 4.54253256320953369141e-01) (3, 2.33349844813346862793e-01) (4, 2.58523583412170410156e-01) (5, 3.90350669622421264648e-01) (6, 4.57805156707763671875e-01) (7, 3.65703672170639038086e-01) (8, 2.99490451812744140625e-01) (9, 5.59807717800140380859e-01) (10, 2.90724009275436401367e-01) (11, 3.41824918985366821289e-01) (12, 3.64254564046859741211e-01) (13, 3.43239247798919677734e-01) (14, 4.24877107143402099609e-01) (15, 4.91839855909347534180e-01) (16, 3.17075103521347045898e-01) (17, 1.73140481114387512207e-01) (18, 3.94724279642105102539e-01) (19, 3.07628750801086425781e-01) (20, 2.48661532998085021973e-01) (21, 7.93244421482086181641e-01) (22, 4.30915832519531250000e-01) (23, 2.33148187398910522461e-01) (24, 2.89068102836608886719e-01) (25, 4.09372389316558837891e-01) (26, 4.82836753129959106445e-01) (27, 3.37103158235549926758e-01) (28, 2.61287271976470947266e-01) (29, 4.42068368196487426758e-01) (30, 4.16734963655471801758e-01) (31, 2.09776431322097778320e-01) (32, 3.56407463550567626953e-01) (33, 3.94987136125564575195e-01) (34, 3.04129689931869506836e-01) (35, 4.40376758575439453125e-01) (36, 2.00502350926399230957e-01) (37, 4.87703830003738403320e-01) (38, 3.51119309663772583008e-01) (39, 3.81873130798339843750e-01) (40, 3.72726291418075561523e-01) (41, 3.07358413934707641602e-01) (42, 4.47765022516250610352e-01) (43, 2.80865192413330078125e-01) (44, 1.58713132143020629883e-01) (45, 3.46076674759387969971e-02) (46, 8.20681974291801452637e-02) (47, 4.03720915317535400391e-01) (48, 2.97606796026229858398e-01) (49, 5.55154144763946533203e-01) (50, 3.50440204143524169922e-01) (51, 4.62315559387207031250e-01) (52, 4.07424032688140869141e-01) (53, 4.67426061630249023438e-01) (54, 4.74597424268722534180e-01) (55, 3.59600037336349487305e-01) (56, 2.40239351987838745117e-01) (57, 2.62166470289230346680e-01) (58, 1.73362895846366882324e-01) (59, 3.69939178228378295898e-01) (60, 2.82865703105926513672e-01) (61, 2.96287387609481811523e-01) (62, 2.98406988382339477539e-01) (63, 2.64875650405883789062e-01) (64, 3.15119892358779907227e-01) (65, 3.71973156929016113281e-01) (66, 3.58691573143005371094e-01) (67, 2.32021898031234741211e-01) (68, 3.44888448715209960938e-01) (69, 4.06973809003829956055e-01) (70, -2.86580529063940048218e-02) (71, 2.65697687864303588867e-01) (72, 2.77642637491226196289e-01) (73, 3.12068581581115722656e-01) (74, 4.84540671110153198242e-01) (75, 3.05645227432250976562e-01) (76, 3.51498246192932128906e-01) (77, 3.55806738138198852539e-01) (78, 2.71216779947280883789e-01) (79, 5.41499912738800048828e-01) (80, 1.65194764733314514160e-01) (81, 5.26592850685119628906e-01) (82, 2.34964713454246520996e-01) (83, 1.57650262117385864258e-01) (84, 4.09719109535217285156e-01) (85, 2.12384313344955444336e-01) (86, 2.74609148502349853516e-01) (87, 3.81321012973785400391e-01) (88, 3.54894161224365234375e-01) (89, 3.75946909189224243164e-01) (90, 3.38943868875503540039e-01) (0, -1.05880327522754669189e-01) (1, -1.82569950819015502930e-01) (2, -1.76240816712379455566e-01) (3, -5.82135654985904693604e-03) (4, -3.51572245359420776367e-01) (5, -1.05754323303699493408e-01) (6, -1.04504682123661041260e-01) (7, -2.35834121704101562500e-02) (8, 6.10303357243537902832e-02) (9, -3.73440027236938476562e-01) (10, -3.24780195951461791992e-02) (11, -8.82882550358772277832e-02) (12, -4.67551080510020256042e-03) (13, -6.48452565073966979980e-02) (14, -5.53025543689727783203e-01) (15, -9.67978313565254211426e-02) (16, -2.83263437449932098389e-02) (17, -1.60092458128929138184e-01) (18, -1.88299909234046936035e-01) (19, -2.22788274288177490234e-01) (20, 5.59565052390098571777e-02) (21, -2.76422519236803054810e-02) (22, -1.32361100986599922180e-03) (23, -1.73135306686162948608e-02) (24, -2.82965391874313354492e-01) (25, -9.94446575641632080078e-02) (26, -1.62996962666511535645e-01) (27, -1.26241371035575866699e-01) (28, 8.81551019847393035889e-03) (29, -2.15957731008529663086e-01) (30, -2.62499991804361343384e-02) (31, -1.45755365490913391113e-01) (32, -6.19545467197895050049e-02) (33, -1.77453327924013137817e-02) (34, -1.61812037229537963867e-01) (35, -1.60362854599952697754e-01) (36, -1.13648727536201477051e-01) (37, -9.53785851597785949707e-02) (38, -2.08841240964829921722e-03) (39, 5.18573969602584838867e-02) (40, 6.98919519782066345215e-02) (41, 2.39944253116846084595e-02) (42, -9.73895043134689331055e-02) (43, 4.56245392560958862305e-02) (44, -2.65563905239105224609e-01) (45, -2.55301618017256259918e-03) (46, -5.62107600271701812744e-02) (47, -6.93741068243980407715e-02) (48, -4.17168438434600830078e-02) (49, -3.18891614675521850586e-01) (50, -1.53041956946253776550e-02) (51, -1.49524072185158729553e-02) (52, -1.17023974657058715820e-01) (53, -4.17414046823978424072e-02) (54, -2.69677579402923583984e-01) (55, -9.40601229667663574219e-02) (56, -6.31673038005828857422e-02) (57, -1.19169399142265319824e-01) (58, -3.96989062428474426270e-02) (59, -3.30090254545211791992e-01) (60, -2.04964041709899902344e-01) (61, -8.55446979403495788574e-02) (62, -1.40591077506542205811e-02) (63, -5.81246726214885711670e-02) (64, -1.78678840398788452148e-01) (65, -1.47909000515937805176e-01) (66, -8.05491302162408828735e-03) (67, -5.37126772105693817139e-02) (68, -1.13400835543870925903e-02) (69, -2.19819560647010803223e-01) (70, -3.37514653801918029785e-02) (71, -3.90082634985446929932e-02) (72, -1.56168550252914428711e-01) (73, -1.45091116428375244141e-01) (74, -2.70437091588973999023e-01) (75, -7.57674649357795715332e-02) (76, -5.14384359121322631836e-02) (77, -6.42501786351203918457e-02) (78, -2.71928999572992324829e-02) (79, -4.18790608644485473633e-01) (80, -1.73423200845718383789e-01) (81, -7.64041543006896972656e-02) (82, -1.24981887638568878174e-01) (83, -1.15331515669822692871e-01) (84, -3.37760418653488159180e-01) (85, -2.00020242482423782349e-03) (86, -2.00989767909049987793e-01) (87, -1.88047632575035095215e-01) (88, -1.13313935697078704834e-01) (89, -1.07932150363922119141e-01) (90, -5.24935945868492126465e-02) (0, 2.66167104244232177734e-01) (1, 4.27558600902557373047e-01) (2, 4.23065602779388427734e-01) (3, 2.55943506956100463867e-01) (4, 2.95044541358947753906e-01) (5, 4.81602936983108520508e-01) (6, 4.98559713363647460938e-01) (7, -1.34890824556350708008e-02) (8, 4.42560166120529174805e-01) (9, 2.11312592029571533203e-01) (10, 3.38503748178482055664e-01) (11, 3.75850349664688110352e-01) (12, -3.62699409015476703644e-03) (13, 3.67004364728927612305e-01) (14, 2.95713603496551513672e-01) (15, 3.35199743509292602539e-01) (16, 4.62627828121185302734e-01) (17, -1.07263661921024322510e-01) (18, 3.14507544040679931641e-01) (19, 4.69187378883361816406e-01) (20, 3.73534560203552246094e-01) (21, 8.74844416975975036621e-02) (22, -8.12977477908134460449e-02) (23, 2.63347625732421875000e-01) (24, 3.40555846691131591797e-01) (25, 3.13570111989974975586e-01) (26, -6.58207610249519348145e-02) (27, -6.24235942959785461426e-02) (28, 3.63324433565139770508e-01) (29, 1.24313324689865112305e-01) (30, 2.99864917993545532227e-01) (31, 4.98951256275177001953e-01) (32, 4.28745418787002563477e-01) (33, 4.74190682172775268555e-01) (34, 4.06543374061584472656e-01) (35, 